{"learner":{"attributes":{"scikit_learn":"{\"_estimator_type\": \"classifier\"}"},"feature_names":["bill_length_mm","bill_depth_mm","flipper_length_mm","body_mass_g","sex_Male","island_Dream","island_Torgersen"],"feature_types":["float","float","float","float","i","i","i"],"gradient_booster":{"model":{"gbtree_model_param":{"num_parallel_tree":"1","num_trees":"300"},"iteration_indptr":[0,3,6,9,12,15,18,21,24,27,30,33,36,39,42,45,48,51,54,57,60,63,66,69,72,75,78,81,84,87,90,93,96,99,102,105,108,111,114,117,120,123,126,129,132,135,138,141,144,147,150,153,156,159,162,165,168,171,174,177,180,183,186,189,192,195,198,201,204,207,210,213,216,219,222,225,228,231,234,237,240,243,246,249,252,255,258,261,264,267,270,273,276,279,282,285,288,291,294,297,300],"tree_info":[0,1,2,0,1,2,0,1,2,0,1,2,0,1,2,0,1,2,0,1,2,0,1,2,0,1,2,0,1,2,0,1,2,0,1,2,0,1,2,0,1,2,0,1,2,0,1,2,0,1,2,0,1,2,0,1,2,0,1,2,0,1,2,0,1,2,0,1,2,0,1,2,0,1,2,0,1,2,0,1,2,0,1,2,0,1,2,0,1,2,0,1,2,0,1,2,0,1,2,0,1,2,0,1,2,0,1,2,0,1,2,0,1,2,0,1,2,0,1,2,0,1,2,0,1,2,0,1,2,0,1,2,0,1,2,0,1,2,0,1,2,0,1,2,0,1,2,0,1,2,0,1,2,0,1,2,0,1,2,0,1,2,0,1,2,0,1,2,0,1,2,0,1,2,0,1,2,0,1,2,0,1,2,0,1,2,0,1,2,0,1,2,0,1,2,0,1,2,0,1,2,0,1,2,0,1,2,0,1,2,0,1,2,0,1,2,0,1,2,0,1,2,0,1,2,0,1,2,0,1,2,0,1,2,0,1,2,0,1,2,0,1,2,0,1,2,0,1,2,0,1,2,0,1,2,0,1,2,0,1,2,0,1,2,0,1,2,0,1,2,0,1,2,0,1,2,0,1,2,0,1,2,0,1,2,0,1,2,0,1,2,0,1,2,0,1,2,0,1,2],"trees":[{"base_weights":[1.6494842E-1,8.113207E-1,-6.000001E-1,1.4410481E-1,2.2178985E-1,-7.292309E-2,-6.7415774E-2,5.7446808E-2,-1.9200005E-2,8.571428E-2,-3.1168837E-2],"categories":[],"categories_nodes":[],"categories_segments":[],"categories_sizes":[],"default_left":[0,0,0,0,0,0,0,0,0,0,0],"id":0,"left_children":[1,3,5,-1,7,-1,9,-1,-1,-1,-1],"loss_changes":[4.8447617E1,1.9356308E1,3.0480194E0,0E0,4.277543E0,0E0,2.5005107E0,0E0,0E0,0E0,0E0],"parents":[2147483647,0,0,1,1,2,2,4,4,6,6],"right_children":[2,4,6,-1,8,-1,10,-1,-1,-1,-1],"split_conditions":[2E2,1E0,1.75E1,1.4410481E-1,1.93E2,-7.292309E-2,1E0,5.7446808E-2,-1.9200005E-2,8.571428E-2,-3.1168837E-2],"split_indices":[2,5,1,0,2,0,5,0,0,0,0],"split_type":[0,0,0,0,0,0,0,0,0,0,0],"sum_hessian":[9.599999E1,5.1999996E1,4.3999996E1,2.4444443E1,2.7555553E1,3.511111E1,8.888888E0,1.4666666E1,1.2888888E1,1.3333333E0,7.5555553E0],"tree_param":{"num_deleted":"0","num_feature":"7","num_nodes":"11","size_leaf_vector":"1"}},{"base_weights":[-2.711059E-1,-7.36944E-2,4.5945942E-1,-6.470589E-1,1.3333334E0,-1.2000003E-2,-7.0073E-2,5.454545E-2,1.4181818E-1],"categories":[],"categories_nodes":[],"categories_segments":[],"categories_sizes":[],"default_left":[0,0,0,0,0,0,0,0,0],"id":1,"left_children":[1,-1,3,5,7,-1,-1,-1,-1],"loss_changes":[3.2140087E1,0E0,3.664017E1,3.9680576E-1,6.303024E-1,0E0,0E0,0E0,0E0],"parents":[2147483647,0,0,2,2,3,3,4,4],"right_children":[2,-1,4,6,8,-1,-1,-1,-1],"split_conditions":[1E0,-7.36944E-2,4.24E1,1.71E1,4.44E1,-1.2000003E-2,-7.0073E-2,5.454545E-2,1.4181818E-1],"split_indices":[5,0,0,1,0,0,0,0,0],"split_type":[0,0,0,0,0,0,0,0,0],"sum_hessian":[9.244444E1,5.6444443E1,3.5999996E1,1.5999999E1,1.9999998E1,1.7777777E0,1.4222221E1,2.6666665E0,1.7333332E1],"tree_param":{"num_deleted":"0","num_feature":"7","num_nodes":"9","size_leaf_vector":"1"}},{"base_weights":[2.937572E-2,1.3578948E0,-6.7097974E-1,-4.2857148E-2,1.4505495E-1,-7.371429E-2,9.6E-2],"categories":[],"categories_nodes":[],"categories_segments":[],"categories_sizes":[],"default_left":[0,0,0,0,0,0,0],"id":2,"left_children":[1,3,5,-1,-1,-1,-1],"loss_changes":[8.537398E1,5.86327E0,7.194298E0,0E0,0E0,0E0,0E0],"parents":[2147483647,0,0,1,1,2,2],"right_children":[2,4,6,-1,-1,-1,-1],"split_conditions":[1.65E1,3.78E1,4.85E3,-4.2857148E-2,1.4505495E-1,-7.371429E-2,9.6E-2],"split_indices":[1,0,3,0,0,0,0],"split_type":[0,0,0,0,0,0,0],"sum_hessian":[8.977777E1,3.0666664E1,5.9111107E1,1.3333333E0,2.9333332E1,5.733333E1,1.7777777E0],"tree_param":{"num_deleted":"0","num_feature":"7","num_nodes":"7","size_leaf_vector":"1"}},{"base_weights":[2.504405E-1,8.2709837E-1,-5.8458585E-1,1.2576684E-1,4.3317425E-1,-7.015177E-2,-3.2512296E-2,5.9111793E-2,-3.0158171E-2,5.8127023E-2,-3.022259E-2],"categories":[],"categories_nodes":[],"categories_segments":[],"categories_sizes":[],"default_left":[0,0,0,0,0,0,0,0,0,0,0],"id":3,"left_children":[1,3,5,-1,7,-1,9,-1,-1,-1,-1],"loss_changes":[4.70277E1,9.223087E0,2.563942E0,0E0,3.8454504E0,0E0,1.5086972E0,0E0,0E0,0E0,0E0],"parents":[2147483647,0,0,1,1,2,2,4,4,6,6],"right_children":[2,4,6,-1,8,-1,10,-1,-1,-1,-1],"split_conditions":[2.01E2,1E0,1.75E1,1.2576684E-1,1.97E2,-7.015177E-2,1.82E1,5.9111793E-2,-3.0158171E-2,5.8127023E-2,-3.022259E-2],"split_indices":[2,5,1,0,2,0,1,0,0,0,0],"split_type":[0,0,0,0,0,0,0,0,0,0,0],"sum_hessian":[9.566006E1,5.658956E1,3.907049E1,2.5989573E1,3.0599989E1,3.2018192E1,7.0523014E0,2.5346893E1,5.253096E0,1.8002852E0,5.252016E0],"tree_param":{"num_deleted":"0","num_feature":"7","num_nodes":"11","size_leaf_vector":"1"}},{"base_weights":[-2.4773304E-1,-7.111998E-2,4.8498395E-1,-6.297229E-1,1.2061161E0,-1.1399842E-2,-6.861472E-2,5.0900187E-2,1.2720658E-1],"categories":[],"categories_nodes":[],"categories_segments":[],"categories_sizes":[],"default_left":[0,0,0,0,0,0,0,0,0],"id":4,"left_children":[1,-1,3,5,7,-1,-1,-1,-1],"loss_changes":[3.37907E1,0E0,3.1912323E1,3.8388014E-1,4.5012283E-1,0E0,0E0,0E0,0E0],"parents":[2147483647,0,0,2,2,3,3,4,4],"right_children":[2,-1,4,6,8,-1,-1,-1,-1],"split_conditions":[1E0,-7.111998E-2,4.14E1,3.25E3,4.44E1,-1.1399842E-2,-6.861472E-2,5.0900187E-2,1.2720658E-1],"split_indices":[5,0,0,3,0,0,0,0,0],"split_type":[0,0,0,0,0,0,0,0,0],"sum_hessian":[9.748872E1,5.973427E1,3.7754456E1,1.4880041E1,2.2874413E1,1.7653085E0,1.3114733E1,2.7304544E0,2.0143959E1],"tree_param":{"num_deleted":"0","num_feature":"7","num_nodes":"9","size_leaf_vector":"1"}},{"base_weights":[1.941971E-2,-7.1323514E-2,1.1657584E0,2.6598856E-1,1.2475582E-1,8.5289724E-2,-4.57914E-2],"categories":[],"categories_nodes":[],"categories_segments":[],"categories_sizes":[],"default_left":[0,0,0,0,0,0,0],"id":5,"left_children":[1,-1,3,5,-1,-1,-1],"loss_changes":[8.613694E1,0E0,2.6109962E0,2.3462253E0,0E0,0E0,0E0],"parents":[2147483647,0,0,2,2,3,3],"right_children":[2,-1,4,6,-1,-1,-1],"split_conditions":[2.07E2,-7.1323514E-2,4.35E3,1E0,1.2475582E-1,8.5289724E-2,-4.57914E-2],"split_indices":[2,0,3,4,0,0,0],"split_type":[0,0,0,0,0,0,0],"sum_hessian":[1.0056979E2,6.158624E1,3.8983555E1,3.6030464E0,3.538051E1,1.8913934E0,1.7116529E0],"tree_param":{"num_deleted":"0","num_feature":"7","num_nodes":"7","size_leaf_vector":"1"}},{"base_weights":[2.270491E-1,1.178086E0,-5.759985E-1,1.1932991E-1,4.0026676E-2,-6.435193E-1,7.830875E-2,-2.2025263E-2,-6.962252E-2],"categories":[],"categories_nodes":[],"categories_segments":[],"categories_sizes":[],"default_left":[0,0,0,0,0,0,0,0,0],"id":6,"left_children":[1,3,5,-1,-1,7,-1,-1,-1],"loss_changes":[7.4109795E1,4.7107697E-2,5.349369E0,0E0,0E0,9.810848E-1,0E0,0E0,0E0],"parents":[2147483647,0,0,1,1,2,2,5,5],"right_children":[2,4,6,-1,-1,8,-1,-1,-1],"split_conditions":[4.24E1,4.5E3,1E0,1.1932991E-1,4.0026676E-2,4.44E1,7.830875E-2,-2.2025263E-2,-6.962252E-2],"split_indices":[0,3,6,0,0,0,0,0,0],"split_type":[0,0,0,0,0,0,0,0,0],"sum_hessian":[9.51484E1,4.3346626E1,5.180177E1,4.1991184E1,1.3554438E0,4.9851597E1,1.9501731E0,6.093695E0,4.37579E1],"tree_param":{"num_deleted":"0","num_feature":"7","num_nodes":"9","size_leaf_vector":"1"}},{"base_weights":[-2.400232E-1,-6.862502E-2,3.56671E-1,-6.294486E-1,1.0969777E0,5.0564704E-4,-6.810149E-2,3.5824995E-2,1.1617594E-1],"categories":[],"categories_nodes":[],"categories_segments":[],"categories_sizes":[],"default_left":[0,0,0,0,0,0,0,0,0],"id":7,"left_children":[1,-1,3,5,7,-1,-1,-1,-1],"loss_changes":[2.4646675E1,0E0,2.979693E1,5.83621E-1,6.9109344E-1,0E0,0E0,0E0,0E0],"parents":[2147483647,0,0,2,2,3,3,4,4],"right_children":[2,-1,4,6,8,-1,-1,-1,-1],"split_conditions":[1E0,-6.862502E-2,4.24E1,3.25E3,4.44E1,5.0564704E-4,-6.810149E-2,3.5824995E-2,1.1617594E-1],"split_indices":[5,0,0,3,0,0,0,0,0],"split_type":[0,0,0,0,0,0,0,0,0],"sum_hessian":[9.064657E1,5.177642E1,3.8870144E1,1.673207E1,2.2138075E1,1.3254023E0,1.5406668E1,2.3113298E0,1.9826746E1],"tree_param":{"num_deleted":"0","num_feature":"7","num_nodes":"9","size_leaf_vector":"1"}},{"base_weights":[2.2057025E-2,-6.8842076E-2,1.016138E0,1.11227825E-1,-4.8379246E-2],"categories":[],"categories_nodes":[],"categories_segments":[],"categories_sizes":[],"default_left":[0,0,0,0,0],"id":8,"left_children":[1,-1,3,-1,-1],"loss_changes":[6.741847E1,0E0,6.2742996E0,0E0,0E0],"parents":[2147483647,0,0,2,2],"right_children":[2,-1,4,-1,-1],"split_conditions":[2.08E2,-6.8842076E-2,1E0,1.11227825E-1,-4.8379246E-2],"split_indices":[2,0,5,0,0],"split_type":[0,0,0,0,0],"sum_hessian":[9.346631E1,5.4687904E1,3.8778408E1,3.6685448E1,2.0929604E0],"tree_param":{"num_deleted":"0","num_feature":"7","num_nodes":"5","size_leaf_vector":"1"}},{"base_weights":[2.3295243E-1,6.9936377E-1,-5.195655E-1,1.0169574E-1,3.784281E-1,-1.3184234E-1,-6.2583613E-1,4.868772E-2,-3.4878414E-2,-2.6862998E-2,3.9349828E-2,1.6927393E-3,-6.556972E-2],"categories":[],"categories_nodes":[],"categories_segments":[],"categories_sizes":[],"default_left":[0,0,0,0,0,0,0,0,0,0,0,0,0],"id":9,"left_children":[1,3,5,-1,7,9,11,-1,-1,-1,-1,-1,-1],"loss_changes":[3.4638916E1,5.803669E0,1.4807863E0,0E0,2.677052E0,7.8326905E-1,5.775404E-1,0E0,0E0,0E0,0E0,0E0,0E0],"parents":[2147483647,0,0,1,1,2,2,4,4,5,5,6,6],"right_children":[2,4,6,-1,8,10,12,-1,-1,-1,-1,-1,-1],"split_conditions":[2E2,1E0,4.35E3,1.0169574E-1,1.97E2,4.25E3,2.07E2,4.868772E-2,-3.4878414E-2,-2.6862998E-2,3.9349828E-2,1.6927393E-3,-6.556972E-2],"split_indices":[2,5,3,0,2,3,2,0,0,0,0,0,0],"split_type":[0,0,0,0,0,0,0,0,0,0,0,0,0],"sum_hessian":[9.66559E1,5.9715076E1,3.6940826E1,2.8923773E1,3.0791302E1,8.428927E0,2.85119E1,2.7082918E1,3.7083838E0,7.075319E0,1.3536084E0,1.2850124E0,2.7226887E1],"tree_param":{"num_deleted":"0","num_feature":"7","num_nodes":"13","size_leaf_vector":"1"}},{"base_weights":[-2.4760237E-1,-6.663508E-2,3.565558E-1,1.3027285E-1,8.252712E-1,2.652431E-2,-2.676837E-2,9.099471E-2,3.13047E-2],"categories":[],"categories_nodes":[],"categories_segments":[],"categories_sizes":[],"default_left":[0,0,0,0,0,0,0,0,0],"id":10,"left_children":[1,-1,3,5,7,-1,-1,-1,-1],"loss_changes":[2.4251198E1,0E0,4.0828586E0,1.5659485E0,2.6494408E-1,0E0,0E0,0E0,0E0],"parents":[2147483647,0,0,2,2,3,3,4,4],"right_children":[2,-1,4,6,8,-1,-1,-1,-1],"split_conditions":[1E0,-6.663508E-2,1.97E2,3.825E3,4.2E3,2.652431E-2,-2.676837E-2,9.099471E-2,3.13047E-2],"split_indices":[5,0,2,3,3,0,0,0,0],"split_type":[0,0,0,0,0,0,0,0,0],"sum_hessian":[9.391909E1,5.5410522E1,3.8508564E1,2.6832502E1,1.1676062E1,2.028587E1,6.546633E0,9.353387E0,2.3226743E0],"tree_param":{"num_deleted":"0","num_feature":"7","num_nodes":"9","size_leaf_vector":"1"}},{"base_weights":[9.891413E-3,9.519582E-1,-6.216094E-1,-4.1647177E-2,1.0253052E-1,-6.695626E-2,6.4646654E-2],"categories":[],"categories_nodes":[],"categories_segments":[],"categories_sizes":[],"default_left":[0,0,0,0,0,0,0],"id":11,"left_children":[1,3,5,-1,-1,-1,-1],"loss_changes":[5.4070595E1,4.087593E0,3.7421818E0,0E0,0E0,0E0,0E0],"parents":[2147483647,0,0,1,1,2,2],"right_children":[2,4,6,-1,-1,-1,-1],"split_conditions":[1.64E1,3.78E1,4.85E3,-4.1647177E-2,1.0253052E-1,-6.695626E-2,6.4646654E-2],"split_indices":[1,0,3,0,0,0,0],"split_type":[0,0,0,0,0,0,0],"sum_hessian":[8.8893135E1,3.5470757E1,5.342238E1,1.5665047E0,3.390425E1,5.1930573E1,1.4918054E0],"tree_param":{"num_deleted":"0","num_feature":"7","num_nodes":"7","size_leaf_vector":"1"}},{"base_weights":[1.7166552E-1,6.10111E-1,-5.9189206E-1,4.8739636E-1,9.1240905E-2,2.4126214E-3,-6.16181E-1,5.8042336E-2,-2.3262526E-3,-1.6493557E-2,-6.409166E-2],"categories":[],"categories_nodes":[],"categories_segments":[],"categories_sizes":[],"default_left":[0,0,0,0,0,0,0,0,0,0,0],"id":12,"left_children":[1,3,5,7,-1,-1,9,-1,-1,-1,-1],"loss_changes":[3.1350216E1,1.7548866E0,5.276623E-1,2.1189556E0,0E0,0E0,2.6273823E-1,0E0,0E0,0E0,0E0],"parents":[2147483647,0,0,1,1,2,2,3,3,6,6],"right_children":[2,4,6,8,-1,-1,10,-1,-1,-1,-1],"split_conditions":[2.03E2,1E0,4.05E3,1.97E2,9.1240905E-2,2.4126214E-3,2.07E2,5.8042336E-2,-2.3262526E-3,-1.6493557E-2,-6.409166E-2],"split_indices":[2,6,3,2,0,0,2,0,0,0,0],"split_type":[0,0,0,0,0,0,0,0,0,0,0],"sum_hessian":[9.156602E1,5.8293835E1,3.327218E1,4.3320606E1,1.4973228E1,1.2623773E0,3.20098E1,3.6529408E1,6.791199E0,2.0619562E0,2.9947845E1],"tree_param":{"num_deleted":"0","num_feature":"7","num_nodes":"11","size_leaf_vector":"1"}},{"base_weights":[-2.5517485E-1,-5.643488E-1,1.2930058E-1,-6.596483E-2,-2.8494275E-1,9.2433923E-1,-5.503435E-1,8.773854E-2,-6.0730673E-2,2.0755848E-2,9.881546E-2,3.3405297E-2,-6.271251E-2],"categories":[],"categories_nodes":[],"categories_segments":[],"categories_sizes":[],"default_left":[0,0,0,0,0,0,0,0,0,0,0,0,0],"id":13,"left_children":[1,3,5,-1,7,9,11,-1,-1,-1,-1,-1,-1],"loss_changes":[1.0162168E1,1.0696802E0,2.139006E1,0E0,5.6934423E0,6.2664413E-1,1.6668167E0,0E0,0E0,0E0,0E0,0E0,0E0],"parents":[2147483647,0,0,1,1,2,2,4,4,5,5,6,6],"right_children":[2,4,6,-1,8,10,12,-1,-1,-1,-1,-1,-1],"split_conditions":[4.56E1,4.23E1,2.08E2,-6.596483E-2,3.625E3,4.6E1,4.35E3,8.773854E-2,-6.0730673E-2,2.0755848E-2,9.881546E-2,3.3405297E-2,-6.271251E-2],"split_indices":[0,0,2,0,3,0,3,0,0,0,0,0,0],"split_type":[0,0,0,0,0,0,0,0,0,0,0,0,0],"sum_hessian":[8.387603E1,4.6231422E1,3.764461E1,3.3458534E1,1.2772888E1,1.7183521E1,2.0461088E1,2.3994856E0,1.0373403E1,1.7524389E0,1.5431082E1,1.3668277E0,1.9094261E1],"tree_param":{"num_deleted":"0","num_feature":"7","num_nodes":"13","size_leaf_vector":"1"}},{"base_weights":[5.6320578E-2,-6.487002E-2,8.82663E-1,9.47817E-2,-4.3408345E-2],"categories":[],"categories_nodes":[],"categories_segments":[],"categories_sizes":[],"default_left":[0,0,0,0,0],"id":14,"left_children":[1,-1,3,-1,-1],"loss_changes":[5.2026756E1,0E0,3.9361649E0,0E0,0E0],"parents":[2147483647,0,0,2,2],"right_children":[2,-1,4,-1,-1],"split_conditions":[2.08E2,-6.487002E-2,1.75E1,9.47817E-2,-4.3408345E-2],"split_indices":[2,0,1,0,0],"split_type":[0,0,0,0,0],"sum_hessian":[8.7319916E1,4.7234905E1,4.008501E1,3.846205E1,1.6229582E0],"tree_param":{"num_deleted":"0","num_feature":"7","num_nodes":"5","size_leaf_vector":"1"}},{"base_weights":[1.7860565E-1,5.6012857E-1,-5.42243E-1,8.7731324E-2,2.7759612E-1,-6.208458E-2,-9.745498E-2,5.3534698E-2,-5.922117E-3,3.8896203E-2,-3.274662E-2],"categories":[],"categories_nodes":[],"categories_segments":[],"categories_sizes":[],"default_left":[0,0,0,0,0,0,0,0,0,0,0],"id":15,"left_children":[1,3,5,-1,7,-1,9,-1,-1,-1,-1],"loss_changes":[2.4804068E1,5.0209427E0,1.0351915E0,0E0,2.8560417E0,0E0,7.8667057E-1,0E0,0E0,0E0,0E0],"parents":[2147483647,0,0,1,1,2,2,4,4,6,6],"right_children":[2,4,6,-1,8,-1,10,-1,-1,-1,-1],"split_conditions":[2.03E2,1E0,1.75E1,8.7731324E-2,1.93E2,-6.208458E-2,1.9E1,5.3534698E-2,-5.922117E-3,3.8896203E-2,-3.274662E-2],"split_indices":[2,5,1,0,2,0,1,0,0,0,0],"split_type":[0,0,0,0,0,0,0,0,0,0,0],"sum_hessian":[8.808558E1,5.7745583E1,3.0339994E1,2.621273E1,3.1532852E1,2.5447159E1,4.8928366E0,1.752916E1,1.4003693E1,1.3489928E0,3.543844E0],"tree_param":{"num_deleted":"0","num_feature":"7","num_nodes":"11","size_leaf_vector":"1"}},{"base_weights":[-2.134268E-1,-6.305905E-2,3.128368E-1,-6.438529E-2,9.365589E-2],"categories":[],"categories_nodes":[],"categories_segments":[],"categories_sizes":[],"default_left":[0,0,0,0,0],"id":16,"left_children":[1,-1,3,-1,-1],"loss_changes":[1.7453281E1,0E0,2.1740993E1,0E0,0E0],"parents":[2147483647,0,0,2,2],"right_children":[2,-1,4,-1,-1],"split_conditions":[1E0,-6.305905E-2,4.24E1,-6.438529E-2,9.365589E-2],"split_indices":[5,0,0,0,0],"split_type":[0,0,0,0,0],"sum_hessian":[7.760145E1,4.317714E1,3.442431E1,1.3573091E1,2.0851217E1],"tree_param":{"num_deleted":"0","num_feature":"7","num_nodes":"5","size_leaf_vector":"1"}},{"base_weights":[1.5299883E-2,-6.339925E-2,8.118855E-1,2.850754E-3,8.589061E-2],"categories":[],"categories_nodes":[],"categories_segments":[],"categories_sizes":[],"default_left":[0,0,0,0,0],"id":17,"left_children":[1,-1,3,-1,-1],"loss_changes":[4.399943E1,0E0,1.3823662E0,0E0,0E0],"parents":[2147483647,0,0,2,2],"right_children":[2,-1,4,-1,-1],"split_conditions":[2.08E2,-6.339925E-2,4.35E3,2.850754E-3,8.589061E-2],"split_indices":[2,0,3,0,0],"split_type":[0,0,0,0,0],"sum_hessian":[8.30744E1,4.5881096E1,3.7193306E1,2.1969967E0,3.4996307E1],"tree_param":{"num_deleted":"0","num_feature":"7","num_nodes":"5","size_leaf_vector":"1"}},{"base_weights":[1.3122478E-1,8.7610185E-1,-5.172082E-1,4.5410863E-1,9.0156816E-2,-5.775995E-1,6.1173167E-2,5.6492507E-2,1.383688E-2,-1.977527E-2,-6.2527224E-2],"categories":[],"categories_nodes":[],"categories_segments":[],"categories_sizes":[],"default_left":[0,0,0,0,0,0,0,0,0,0,0],"id":18,"left_children":[1,3,5,7,-1,9,-1,-1,-1,-1,-1],"loss_changes":[4.3818653E1,4.361725E-2,3.668686E0,7.627612E-2,0E0,7.215204E-1,0E0,0E0,0E0,0E0,0E0],"parents":[2147483647,0,0,1,1,2,2,3,3,5,5],"right_children":[2,4,6,8,-1,10,-1,-1,-1,-1,-1],"split_conditions":[4.24E1,1.67E1,1E0,1.63E1,9.0156816E-2,4.44E1,6.1173167E-2,5.6492507E-2,1.383688E-2,-1.977527E-2,-6.2527224E-2],"split_indices":[0,1,6,1,0,0,0,0,0,0,0],"split_type":[0,0,0,0,0,0,0,0,0,0,0],"sum_hessian":[8.8783165E1,4.1155422E1,4.7627743E1,3.414056E0,3.7741367E1,4.5672894E1,1.9548484E0,1.9429283E0,1.4711277E0,5.6670494E0,4.0005844E1],"tree_param":{"num_deleted":"0","num_feature":"7","num_nodes":"11","size_leaf_vector":"1"}},{"base_weights":[-1.3835831E-1,-6.1554946E-2,3.856703E-1,-5.575925E-1,8.661798E-1,6.925259E-3,-6.2369537E-2,3.822309E-2,9.100487E-2],"categories":[],"categories_nodes":[],"categories_segments":[],"categories_sizes":[],"default_left":[0,0,0,0,0,0,0,0,0],"id":19,"left_children":[1,-1,3,5,7,-1,-1,-1,-1],"loss_changes":[2.039123E1,0E0,1.8171995E1,6.141734E-1,2.0939636E-1,0E0,0E0,0E0,0E0],"parents":[2147483647,0,0,2,2,3,3,4,4],"right_children":[2,-1,4,6,8,-1,-1,-1,-1],"split_conditions":[1E0,-6.1554946E-2,4.24E1,1.69E1,4.44E1,6.925259E-3,-6.2369537E-2,3.822309E-2,9.100487E-2],"split_indices":[5,0,0,1,0,0,0,0,0],"split_type":[0,0,0,0,0,0,0,0,0],"sum_hessian":[7.959539E1,4.1568043E1,3.802735E1,1.2779727E1,2.5247623E1,1.2145607E0,1.1565166E1,2.9057066E0,2.2341917E1],"tree_param":{"num_deleted":"0","num_feature":"7","num_nodes":"9","size_leaf_vector":"1"}},{"base_weights":[4.3970924E-2,7.8829104E-1,-5.7510513E-1,-3.1985335E-2,8.263977E-2,-6.2186033E-2,-2.8925523E-1,5.2025165E-2,-5.346603E-2],"categories":[],"categories_nodes":[],"categories_segments":[],"categories_sizes":[],"default_left":[0,0,0,0,0,0,0,0,0],"id":20,"left_children":[1,3,5,-1,-1,-1,7,-1,-1],"loss_changes":[3.938524E1,1.9021568E0,4.4431496E-1,0E0,0E0,0E0,1.9538102E0,0E0,0E0],"parents":[2147483647,0,0,1,1,2,2,6,6],"right_children":[2,4,6,-1,-1,-1,8,-1,-1],"split_conditions":[1.66E1,3.78E1,4.97E1,-3.1985335E-2,8.263977E-2,-6.2186033E-2,1.75E1,5.2025165E-2,-5.346603E-2],"split_indices":[1,0,0,0,0,0,1,0,0],"split_type":[0,0,0,0,0,0,0,0,0],"sum_hessian":[8.3489296E1,3.7785793E1,4.57035E1,1.0103722E0,3.677542E1,3.82686E1,7.4348993E0,1.4690472E0,5.9658523E0],"tree_param":{"num_deleted":"0","num_feature":"7","num_nodes":"9","size_leaf_vector":"1"}},{"base_weights":[1.4547403E-1,4.4643041E-1,-5.624166E-1,7.857414E-2,1.5330258E-1,3.64673E-3,-5.935904E-2,5.4428945E-3,5.118953E-2],"categories":[],"categories_nodes":[],"categories_segments":[],"categories_sizes":[],"default_left":[0,0,0,0,0,0,0,0,0],"id":21,"left_children":[1,3,5,-1,7,-1,-1,-1,-1],"loss_changes":[1.7901718E1,5.717105E0,4.9133348E-1,0E0,1.1326339E0,0E0,0E0,0E0,0E0],"parents":[2147483647,0,0,1,1,2,2,4,4],"right_children":[2,4,6,-1,8,-1,-1,-1,-1],"split_conditions":[2.07E2,1E0,4.05E3,7.857414E-2,4.075E3,3.64673E-3,-5.935904E-2,5.4428945E-3,5.118953E-2],"split_indices":[2,5,3,0,3,0,0,0,0],"split_type":[0,0,0,0,0,0,0,0,0],"sum_hessian":[8.1849655E1,5.7691666E1,2.415799E1,2.5960485E1,3.1731178E1,1.1868789E0,2.297111E1,2.5775866E1,5.9553137E0],"tree_param":{"num_deleted":"0","num_feature":"7","num_nodes":"9","size_leaf_vector":"1"}},{"base_weights":[-1.5519089E-1,-6.0303327E-2,3.8924512E-1,-5.2214056E-1,8.017216E-1,-5.9244495E-2,-1.5732722E-2,3.5218176E-2,8.4565125E-2],"categories":[],"categories_nodes":[],"categories_segments":[],"categories_sizes":[],"default_left":[0,0,0,0,0,0,0,0,0],"id":22,"left_children":[1,-1,3,5,7,-1,-1,-1,-1],"loss_changes":[1.9191319E1,0E0,1.3838177E1,2.0758843E-1,1.9528198E-1,0E0,0E0,0E0,0E0],"parents":[2147483647,0,0,2,2,3,3,4,4],"right_children":[2,-1,4,6,8,-1,-1,-1,-1],"split_conditions":[1E0,-6.0303327E-2,4.24E1,4.09E1,4.44E1,-5.9244495E-2,-1.5732722E-2,3.5218176E-2,8.4565125E-2],"split_indices":[5,0,0,0,0,0,0,0,0],"split_type":[0,0,0,0,0,0,0,0,0],"sum_hessian":[7.674783E1,4.2050385E1,3.469745E1,1.0727866E1,2.3969582E1,8.471355E0,2.2565105E0,2.9365308E0,2.103305E1],"tree_param":{"num_deleted":"0","num_feature":"7","num_nodes":"9","size_leaf_vector":"1"}},{"base_weights":[-3.5610553E-3,-6.086222E-2,7.261129E-1,7.674251E-2,-3.361228E-2],"categories":[],"categories_nodes":[],"categories_segments":[],"categories_sizes":[],"default_left":[0,0,0,0,0],"id":23,"left_children":[1,-1,3,-1,-1],"loss_changes":[3.545243E1,0E0,1.8554764E0,0E0,0E0],"parents":[2147483647,0,0,2,2],"right_children":[2,-1,4,-1,-1],"split_conditions":[2.08E2,-6.086222E-2,1E0,7.674251E-2,-3.361228E-2],"split_indices":[2,0,5,0,0],"split_type":[0,0,0,0,0],"sum_hessian":[7.829947E1,4.2895504E1,3.5403965E1,3.4345737E1,1.0582266E0],"tree_param":{"num_deleted":"0","num_feature":"7","num_nodes":"5","size_leaf_vector":"1"}},{"base_weights":[1.5104942E-1,7.686444E-1,-4.8379728E-1,2.0268756E-1,8.117302E-2,-5.4463863E-1,5.5896282E-2,5.507657E-2,-4.2750295E-2,-2.0038178E-2,-5.941267E-2],"categories":[],"categories_nodes":[],"categories_segments":[],"categories_sizes":[],"default_left":[0,0,0,0,0,0,0,0,0,0,0],"id":24,"left_children":[1,3,5,7,-1,9,-1,-1,-1,-1,-1],"loss_changes":[3.4374428E1,9.1682434E-1,3.0564852E0,1.2159626E0,0E0,5.878544E-1,0E0,0E0,0E0,0E0,0E0],"parents":[2147483647,0,0,1,1,2,2,3,3,5,5],"right_children":[2,4,6,8,-1,10,-1,-1,-1,-1,-1],"split_conditions":[4.24E1,1.67E1,1E0,3.82E1,8.117302E-2,4.44E1,5.5896282E-2,5.507657E-2,-4.2750295E-2,-2.0038178E-2,-5.941267E-2],"split_indices":[0,1,6,0,0,0,0,0,0,0,0],"split_type":[0,0,0,0,0,0,0,0,0,0,0],"sum_hessian":[8.5723946E1,4.3345543E1,4.23784E1,3.4699526E0,3.987559E1,4.0493446E1,1.8849534E0,2.3164966E0,1.1534561E0,5.724041E0,3.4769405E1],"tree_param":{"num_deleted":"0","num_feature":"7","num_nodes":"11","size_leaf_vector":"1"}},{"base_weights":[-1.8638968E-1,-5.9094287E-2,3.130706E-1,-5.216569E-1,7.566773E-1,8.435688E-3,-5.9443157E-2,2.244362E-2,8.1120156E-2],"categories":[],"categories_nodes":[],"categories_segments":[],"categories_sizes":[],"default_left":[0,0,0,0,0,0,0,0,0],"id":25,"left_children":[1,-1,3,5,7,-1,-1,-1,-1],"loss_changes":[1.5018108E1,0E0,1.2801412E1,5.8902836E-1,4.6468735E-1,0E0,0E0,0E0,0E0],"parents":[2147483647,0,0,2,2,3,3,4,4],"right_children":[2,-1,4,6,8,-1,-1,-1,-1],"split_conditions":[1E0,-5.9094287E-2,4.24E1,3.25E3,4.44E1,8.435688E-3,-5.9443157E-2,2.244362E-2,8.1120156E-2],"split_indices":[5,0,0,3,0,0,0,0,0],"split_type":[0,0,0,0,0,0,0,0,0],"sum_hessian":[7.241003E1,3.9904774E1,3.2505257E1,1.1218898E1,2.128636E1,1.1857446E0,1.0033153E1,2.4534228E0,1.8832937E1],"tree_param":{"num_deleted":"0","num_feature":"7","num_nodes":"9","size_leaf_vector":"1"}},{"base_weights":[4.861203E-2,-5.9566416E-2,6.913636E-1,7.454742E-2,-3.9554868E-2],"categories":[],"categories_nodes":[],"categories_segments":[],"categories_sizes":[],"default_left":[0,0,0,0,0],"id":26,"left_children":[1,-1,3,-1,-1],"loss_changes":[3.1281809E1,0E0,2.5168247E0,0E0,0E0],"parents":[2147483647,0,0,2,2],"right_children":[2,-1,4,-1,-1],"split_conditions":[2.08E2,-5.9566416E-2,1.75E1,7.454742E-2,-3.9554868E-2],"split_indices":[2,0,1,0,0],"split_type":[0,0,0,0,0],"sum_hessian":[7.354547E1,3.6765762E1,3.6779713E1,3.533475E1,1.4449595E0],"tree_param":{"num_deleted":"0","num_feature":"7","num_nodes":"5","size_leaf_vector":"1"}},{"base_weights":[1.19596116E-1,7.1902084E-1,-4.7235233E-1,1.2132543E-1,7.6112136E-2,-5.313987E-1,5.3128894E-2,4.869114E-2,-4.1795563E-2,-5.6864824E-2,-3.2356742E-3],"categories":[],"categories_nodes":[],"categories_segments":[],"categories_sizes":[],"default_left":[0,0,0,0,0,0,0,0,0,0,0],"id":27,"left_children":[1,3,5,7,-1,9,-1,-1,-1,-1,-1],"loss_changes":[2.9600027E1,9.4864845E-1,2.7768745E0,9.7474545E-1,0E0,7.299061E-1,0E0,0E0,0E0,0E0,0E0],"parents":[2147483647,0,0,1,1,2,2,3,3,5,5],"right_children":[2,4,6,8,-1,10,-1,-1,-1,-1,-1],"split_conditions":[4.24E1,1.67E1,1E0,3.82E1,7.6112136E-2,1.97E1,5.3128894E-2,4.869114E-2,-4.1795563E-2,-5.6864824E-2,-3.2356742E-3],"split_indices":[0,1,6,0,0,1,0,0,0,0,0],"split_type":[0,0,0,0,0,0,0,0,0,0,0],"sum_hessian":[8.146348E1,4.0369473E1,4.109401E1,2.9118648E0,3.7457607E1,3.9255077E1,1.8389307E0,1.7932836E0,1.1185812E0,3.639872E1,2.8563578E0],"tree_param":{"num_deleted":"0","num_feature":"7","num_nodes":"11","size_leaf_vector":"1"}},{"base_weights":[-1.8920118E-1,-5.7851445E-2,2.5011736E-1,-5.221872E-1,7.474238E-1,-2.5676454E-3,-5.852961E-2,7.840445E-2,2.6102219E-2],"categories":[],"categories_nodes":[],"categories_segments":[],"categories_sizes":[],"default_left":[0,0,0,0,0,0,0,0,0],"id":28,"left_children":[1,-1,3,5,7,-1,-1,-1,-1],"loss_changes":[1.1812958E1,0E0,1.2968994E1,4.053905E-1,1.575365E-1,0E0,0E0,0E0,0E0],"parents":[2147483647,0,0,2,2,3,3,4,4],"right_children":[2,-1,4,6,8,-1,-1,-1,-1],"split_conditions":[1E0,-5.7851445E-2,4.24E1,3.25E3,4.2E3,-2.5676454E-3,-5.852961E-2,7.840445E-2,2.6102219E-2],"split_indices":[5,0,0,3,3,0,0,0,0],"split_type":[0,0,0,0,0,0,0,0,0],"sum_hessian":[6.7222466E1,3.547158E1,3.1750887E1,1.2417221E1,1.9333666E1,1.5589571E0,1.0858264E1,1.741089E1,1.9227749E0],"tree_param":{"num_deleted":"0","num_feature":"7","num_nodes":"9","size_leaf_vector":"1"}},{"base_weights":[6.0550664E-2,-5.8545012E-2,6.9147676E-1,7.140179E-2,9.946382E-3],"categories":[],"categories_nodes":[],"categories_segments":[],"categories_sizes":[],"default_left":[0,0,0,0,0],"id":29,"left_children":[1,-1,3,-1,-1],"loss_changes":[3.1458475E1,0E0,4.4947052E-1,0E0,0E0],"parents":[2147483647,0,0,2,2],"right_children":[2,-1,4,-1,-1],"split_conditions":[2.08E2,-5.8545012E-2,1.71E1,7.140179E-2,9.946382E-3],"split_indices":[2,0,1,0,0],"split_type":[0,0,0,0,0],"sum_hessian":[7.519056E1,3.718706E1,3.8003494E1,3.6411045E1,1.5924473E0],"tree_param":{"num_deleted":"0","num_feature":"7","num_nodes":"5","size_leaf_vector":"1"}},{"base_weights":[1.4396766E-1,6.532455E-1,-5.199642E-1,7.308057E-2,7.219777E-2,7.379071E-3,-5.6638956E-1,5.3977706E-2,-4.9712252E-2,-3.6949344E-2,4.198223E-2,-5.8785837E-2,-8.187834E-3],"categories":[],"categories_nodes":[],"categories_segments":[],"categories_sizes":[],"default_left":[0,0,0,0,0,0,0,0,0,0,0,0,0],"id":30,"left_children":[1,3,5,7,-1,9,11,-1,-1,-1,-1,-1,-1],"loss_changes":[2.6118511E1,1.6853695E0,8.2804966E-1,1.793044E0,0E0,7.3180133E-1,2.737217E-1,0E0,0E0,0E0,0E0,0E0,0E0],"parents":[2147483647,0,0,1,1,2,2,3,3,5,5,6,6],"right_children":[2,4,6,8,-1,10,12,-1,-1,-1,-1,-1,-1],"split_conditions":[4.33E1,1.68E1,4.44E1,3.96E1,7.219777E-2,4.36E1,1.99E1,5.3977706E-2,-4.9712252E-2,-3.6949344E-2,4.198223E-2,-5.8785837E-2,-8.187834E-3],"split_indices":[0,1,0,0,0,0,1,0,0,0,0,0,0],"split_type":[0,0,0,0,0,0,0,0,0,0,0,0,0],"sum_hessian":[7.52404E1,4.2588455E1,3.265195E1,4.7295804E0,3.7858875E1,2.7100182E0,2.9941933E1,2.6301942E0,2.099386E0,1.4704869E0,1.2395313E0,2.846724E1,1.4746933E0],"tree_param":{"num_deleted":"0","num_feature":"7","num_nodes":"13","size_leaf_vector":"1"}},{"base_weights":[-1.5128042E-1,-5.690639E-2,2.6035458E-1,-5.060355E-1,6.829012E-1,1.132138E-2,-5.740088E-2,1.789185E-2,7.3526576E-2],"categories":[],"categories_nodes":[],"categories_segments":[],"categories_sizes":[],"default_left":[0,0,0,0,0,0,0,0,0],"id":31,"left_children":[1,-1,3,5,7,-1,-1,-1,-1],"loss_changes":[1.1867981E1,0E0,1.168404E1,6.1294293E-1,4.7530556E-1,0E0,0E0,0E0,0E0],"parents":[2147483647,0,0,2,2,3,3,4,4],"right_children":[2,-1,4,6,8,-1,-1,-1,-1],"split_conditions":[1E0,-5.690639E-2,4.24E1,3.275E3,4.44E1,1.132138E-2,-5.740088E-2,1.789185E-2,7.3526576E-2],"split_indices":[5,0,0,3,0,0,0,0,0],"split_type":[0,0,0,0,0,0,0,0,0],"sum_hessian":[6.714869E1,3.313565E1,3.401304E1,1.201797E1,2.1995068E1,1.1228672E0,1.08951025E1,2.4859362E0,1.950913E1],"tree_param":{"num_deleted":"0","num_feature":"7","num_nodes":"9","size_leaf_vector":"1"}},{"base_weights":[2.0904642E-2,6.4771223E-1,-4.890793E-1,-7.6363757E-3,6.805212E-2,-5.782487E-2,5.291332E-2],"categories":[],"categories_nodes":[],"categories_segments":[],"categories_sizes":[],"default_left":[0,0,0,0,0,0,0],"id":32,"left_children":[1,3,5,-1,-1,-1,-1],"loss_changes":[2.2116293E1,7.8897667E-1,3.7717028E0,0E0,0E0,0E0,0E0],"parents":[2147483647,0,0,1,1,2,2],"right_children":[2,4,6,-1,-1,-1,-1],"split_conditions":[1.65E1,4.1E1,4.85E3,-7.6363757E-3,6.805212E-2,-5.782487E-2,5.291332E-2],"split_indices":[1,0,3,0,0,0,0],"split_type":[0,0,0,0,0,0,0],"sum_hessian":[6.719554E1,3.0023903E1,3.717164E1,1.2439107E0,2.8779991E1,3.457578E1,2.5958598E0],"tree_param":{"num_deleted":"0","num_feature":"7","num_nodes":"7","size_leaf_vector":"1"}},{"base_weights":[9.367946E-2,6.584791E-1,-4.788654E-1,6.7514725E-2,2.2823086E-2,-3.908095E-2,-5.7794925E-2,-5.3168315E-2,6.609001E-2],"categories":[],"categories_nodes":[],"categories_segments":[],"categories_sizes":[],"default_left":[0,0,0,0,0,0,0,0,0],"id":33,"left_children":[1,3,5,-1,-1,7,-1,-1,-1],"loss_changes":[2.3516594E1,1.0794926E-1,1.5552158E0,0E0,0E0,3.0168984E0,0E0,0E0,0E0],"parents":[2147483647,0,0,1,1,2,2,5,5],"right_children":[2,4,6,-1,-1,8,-1,-1,-1],"split_conditions":[4.24E1,4.625E3,4.44E1,6.7514725E-2,2.2823086E-2,1E0,-5.7794925E-2,-5.3168315E-2,6.609001E-2],"split_indices":[0,3,0,0,0,4,0,0,0],"split_type":[0,0,0,0,0,0,0,0,0],"sum_hessian":[7.074767E1,3.5539173E1,3.52085E1,3.3665733E1,1.873439E0,6.730321E0,2.847818E1,4.09145E0,2.6388707E0],"tree_param":{"num_deleted":"0","num_feature":"7","num_nodes":"9","size_leaf_vector":"1"}},{"base_weights":[-1.2122013E-1,-5.5856764E-2,2.8698948E-1,3.0911177E-1,-1.9919962E-2,2.2897007E-2,5.639459E-2,-4.173634E-3,1.2053851E-3],"categories":[],"categories_nodes":[],"categories_segments":[],"categories_sizes":[],"default_left":[0,0,0,0,0,0,0,0,0],"id":34,"left_children":[1,-1,3,5,7,-1,-1,-1,-1],"loss_changes":[1.1551398E1,0E0,2.347107E-1,5.133712E-1,2.7371673E-3,0E0,0E0,0E0,0E0],"parents":[2147483647,0,0,2,2,3,3,4,4],"right_children":[2,-1,4,6,8,-1,-1,-1,-1],"split_conditions":[1E0,-5.5856764E-2,2.01E1,1.94E1,2.05E1,2.2897007E-2,5.639459E-2,-4.173634E-3,1.2053851E-3],"split_indices":[5,0,1,1,1,0,0,0,0],"split_type":[0,0,0,0,0,0,0,0,0],"sum_hessian":[6.2805138E1,3.0142614E1,3.266252E1,3.0459778E1,2.2027445E0,2.4616686E1,5.843093E0,1.1278563E0,1.0748882E0],"tree_param":{"num_deleted":"0","num_feature":"7","num_nodes":"9","size_leaf_vector":"1"}},{"base_weights":[2.0831477E-2,6.264956E-1,-5.0995314E-1,-6.5356283E-3,6.574013E-2,-5.6899864E-2,4.3322627E-2],"categories":[],"categories_nodes":[],"categories_segments":[],"categories_sizes":[],"default_left":[0,0,0,0,0,0,0],"id":35,"left_children":[1,3,5,-1,-1,-1,-1],"loss_changes":[2.1095615E1,6.9796944E-1,2.1953344E0,0E0,0E0,0E0,0E0],"parents":[2147483647,0,0,1,1,2,2],"right_children":[2,4,6,-1,-1,-1,-1],"split_conditions":[1.65E1,3.975E3,4.85E3,-6.5356283E-3,6.574013E-2,-5.6899864E-2,4.3322627E-2],"split_indices":[1,3,3,0,0,0,0],"split_type":[0,0,0,0,0,0,0],"sum_hessian":[6.362708E1,2.9633156E1,3.3993923E1,1.2194743E0,2.8413683E1,3.236454E1,1.629383E0],"tree_param":{"num_deleted":"0","num_feature":"7","num_nodes":"7","size_leaf_vector":"1"}},{"base_weights":[8.231987E-2,6.346345E-1,-4.5128512E-1,1.8045771E-1,6.789964E-2,-5.105487E-1,4.6879433E-2,4.842796E-2,-4.0831506E-2,-5.5267703E-2,-4.763665E-3],"categories":[],"categories_nodes":[],"categories_segments":[],"categories_sizes":[],"default_left":[0,0,0,0,0,0,0,0,0,0,0],"id":36,"left_children":[1,3,5,7,-1,9,-1,-1,-1,-1,-1],"loss_changes":[2.0709633E1,5.7192326E-1,2.1930614E0,9.9000955E-1,0E0,6.39472E-1,0E0,0E0,0E0,0E0,0E0],"parents":[2147483647,0,0,1,1,2,2,3,3,5,5],"right_children":[2,4,6,8,-1,10,-1,-1,-1,-1,-1],"split_conditions":[4.23E1,1.67E1,1E0,3.82E1,6.789964E-2,1.97E1,4.6879433E-2,4.842796E-2,-4.0831506E-2,-5.5267703E-2,-4.763665E-3],"split_indices":[0,1,6,0,0,1,0,0,0,0,0],"split_type":[0,0,0,0,0,0,0,0,0,0,0],"sum_hessian":[6.829758E1,3.3467392E1,3.483018E1,3.4290128E0,3.003838E1,3.314065E1,1.6895308E0,2.37891E0,1.0501026E0,3.019846E1,2.9421906E0],"tree_param":{"num_deleted":"0","num_feature":"7","num_nodes":"11","size_leaf_vector":"1"}},{"base_weights":[-1.5080993E-1,-4.4910517E-1,2.1665984E-1,-2.7131715E-1,-5.42014E-2,-4.7088912E-1,6.530784E-2,-5.280527E-2,3.226644E-2,-4.342309E-3,-5.1067807E-2],"categories":[],"categories_nodes":[],"categories_segments":[],"categories_sizes":[],"default_left":[0,0,0,0,0,0,0,0,0,0,0],"id":37,"left_children":[1,3,5,7,-1,9,-1,-1,-1,-1,-1],"loss_changes":[6.4266243E0,3.84758E-1,8.272792E0,2.1608605E0,0E0,1.6301727E-1,0E0,0E0,0E0,0E0,0E0],"parents":[2147483647,0,0,1,1,2,2,3,3,5,5],"right_children":[2,4,6,8,-1,10,-1,-1,-1,-1,-1],"split_conditions":[4.6E1,3.625E3,1.71E1,4.07E1,-5.42014E-2,2.11E2,6.530784E-2,-5.280527E-2,3.226644E-2,-4.342309E-3,-5.1067807E-2],"split_indices":[0,3,1,0,0,2,0,0,0,0,0],"split_type":[0,0,0,0,0,0,0,0,0,0,0],"sum_hessian":[5.674165E1,3.1196E1,2.5545649E1,1.2052631E1,1.9143368E1,9.888296E0,1.5657352E1,8.492799E0,3.5598323E0,1.0201211E0,8.8681755E0],"tree_param":{"num_deleted":"0","num_feature":"7","num_nodes":"11","size_leaf_vector":"1"}},{"base_weights":[-8.564677E-3,-5.5725645E-2,5.6054235E-1,6.3841194E-2,-4.0800568E-2],"categories":[],"categories_nodes":[],"categories_segments":[],"categories_sizes":[],"default_left":[0,0,0,0,0],"id":38,"left_children":[1,-1,3,-1,-1],"loss_changes":[1.9150063E1,0E0,2.5314388E0,0E0,0E0],"parents":[2147483647,0,0,2,2],"right_children":[2,-1,4,-1,-1],"split_conditions":[2.08E2,-5.5725645E-2,1.75E1,6.3841194E-2,-4.0800568E-2],"split_indices":[2,0,1,0,0],"split_type":[0,0,0,0,0],"sum_hessian":[5.9326122E1,3.0215422E1,2.91107E1,2.7259907E1,1.8507938E0],"tree_param":{"num_deleted":"0","num_feature":"7","num_nodes":"5","size_leaf_vector":"1"}},{"base_weights":[9.7688235E-2,3.1448308E-1,-4.5439222E-1,6.1747592E-2,1.0175377E-1,-5.289934E-2,2.0603122E-2,-3.4357235E-3,3.544637E-2],"categories":[],"categories_nodes":[],"categories_segments":[],"categories_sizes":[],"default_left":[0,0,0,0,0,0,0,0,0],"id":39,"left_children":[1,3,5,-1,7,-1,-1,-1,-1],"loss_changes":[7.326167E0,2.7529082E0,9.62883E-1,0E0,9.361663E-1,0E0,0E0,0E0,0E0],"parents":[2147483647,0,0,1,1,2,2,4,4],"right_children":[2,4,6,-1,8,-1,-1,-1,-1],"split_conditions":[2.07E2,1E0,1.75E1,6.1747592E-2,3.825E3,-5.289934E-2,2.0603122E-2,-3.4357235E-3,3.544637E-2],"split_indices":[2,5,1,0,3,0,0,0,0],"split_type":[0,0,0,0,0,0,0,0,0],"sum_hessian":[5.9016518E1,4.2685028E1,1.633149E1,1.6822254E1,2.5862772E1,1.4852739E1,1.4787506E0,1.7370804E1,8.491969E0],"tree_param":{"num_deleted":"0","num_feature":"7","num_nodes":"9","size_leaf_vector":"1"}},{"base_weights":[-1.3338138E-1,-5.4383498E-2,2.505137E-1,1.18770786E-1,4.9294317E-1,2.4679637E-2,-2.9664312E-2,5.4591507E-2,1.643004E-2],"categories":[],"categories_nodes":[],"categories_segments":[],"categories_sizes":[],"default_left":[0,0,0,0,0,0,0,0,0],"id":40,"left_children":[1,-1,3,5,7,-1,-1,-1,-1],"loss_changes":[8.939213E0,0E0,8.8529193E-1,1.1615784E0,8.591843E-2,0E0,0E0,0E0,0E0],"parents":[2147483647,0,0,2,2,3,3,4,4],"right_children":[2,-1,4,6,8,-1,-1,-1,-1],"split_conditions":[1E0,-5.4383498E-2,1.97E2,3.825E3,4.2E3,2.4679637E-2,-2.9664312E-2,5.4591507E-2,1.643004E-2],"split_indices":[5,0,2,3,3,0,0,0,0],"split_type":[0,0,0,0,0,0,0,0,0],"sum_hessian":[5.4866673E1,2.6314774E1,2.8551899E1,1.946435E1,9.08755E0,1.518914E1,4.2752085E0,7.2567577E0,1.8307922E0],"tree_param":{"num_deleted":"0","num_feature":"7","num_nodes":"9","size_leaf_vector":"1"}},{"base_weights":[4.0261798E-2,5.795369E-1,-4.7384626E-1,-1.20973E-2,6.1852265E-2,-5.514685E-2,4.404487E-2],"categories":[],"categories_nodes":[],"categories_segments":[],"categories_sizes":[],"default_left":[0,0,0,0,0,0,0],"id":41,"left_children":[1,3,5,-1,-1,-1,-1],"loss_changes":[1.6197721E1,8.526201E-1,2.3686361E0,0E0,0E0,0E0,0E0],"parents":[2147483647,0,0,1,1,2,2],"right_children":[2,4,6,-1,-1,-1,-1],"split_conditions":[1.65E1,4.1E1,4.85E3,-1.20973E-2,6.1852265E-2,-5.514685E-2,4.404487E-2],"split_indices":[1,0,3,0,0,0,0],"split_type":[0,0,0,0,0,0,0],"sum_hessian":[5.643321E1,2.748035E1,2.895286E1,1.3378762E0,2.6142473E1,2.7052944E1,1.8999153E0],"tree_param":{"num_deleted":"0","num_feature":"7","num_nodes":"7","size_leaf_vector":"1"}},{"base_weights":[1.1317527E-1,6.064164E-1,-4.2329603E-1,4.420685E-2,6.488545E-2,2.4399022E-2,-5.1334625E-1,3.3391487E-2,-2.2661146E-2,-4.7436144E-2,5.5888593E-2,-5.355571E-2,3.5448812E-4],"categories":[],"categories_nodes":[],"categories_segments":[],"categories_sizes":[],"default_left":[0,0,0,0,0,0,0,0,0,0,0,0,0],"id":42,"left_children":[1,3,5,7,-1,9,11,-1,-1,-1,-1,-1,-1],"loss_changes":[1.7078278E1,7.7134037E-1,1.2639084E0,3.4450975E-1,0E0,1.9052719E0,2.9910135E-1,0E0,0E0,0E0,0E0,0E0,0E0],"parents":[2147483647,0,0,1,1,2,2,3,3,5,5,6,6],"right_children":[2,4,6,8,-1,10,12,-1,-1,-1,-1,-1,-1],"split_conditions":[4.24E1,1.67E1,4.44E1,3.63E1,6.488545E-2,1.75E1,2.01E1,3.3391487E-2,-2.2661146E-2,-4.7436144E-2,5.5888593E-2,-5.355571E-2,3.5448812E-4],"split_indices":[0,1,0,0,0,1,1,0,0,0,0,0,0],"split_type":[0,0,0,0,0,0,0,0,0,0,0,0,0],"sum_hessian":[6.25713E1,3.253118E1,3.0040117E1,2.4265473E0,3.0104635E1,5.1525707E0,2.4887547E1,1.0598198E0,1.3667275E0,2.723556E0,2.429015E0,2.3827566E1,1.0599812E0],"tree_param":{"num_deleted":"0","num_feature":"7","num_nodes":"13","size_leaf_vector":"1"}},{"base_weights":[-1.5226004E-1,-5.346323E-2,1.9828346E-1,-4.646332E-1,5.8594346E-1,1.0273776E-2,-5.425323E-2,2.1762088E-2,6.439799E-2],"categories":[],"categories_nodes":[],"categories_segments":[],"categories_sizes":[],"default_left":[0,0,0,0,0,0,0,0,0],"id":43,"left_children":[1,-1,3,5,7,-1,-1,-1,-1],"loss_changes":[6.9598303E0,0E0,7.3153296E0,5.273566E-1,2.389803E-1,0E0,0E0,0E0,0E0],"parents":[2147483647,0,0,2,2,3,3,4,4],"right_children":[2,-1,4,6,8,-1,-1,-1,-1],"split_conditions":[1E0,-5.346323E-2,4.24E1,1.69E1,4.44E1,1.0273776E-2,-5.425323E-2,2.1762088E-2,6.439799E-2],"split_indices":[5,0,0,1,0,0,0,0,0],"split_type":[0,0,0,0,0,0,0,0,0],"sum_hessian":[5.0133377E1,2.3726929E1,2.640645E1,9.670643E0,1.6735807E1,1.1289785E0,8.541664E0,2.9246342E0,1.3811173E1],"tree_param":{"num_deleted":"0","num_feature":"7","num_nodes":"9","size_leaf_vector":"1"}},{"base_weights":[3.359548E-2,-5.3881284E-2,5.407552E-1,6.0517948E-2,-3.6478557E-2],"categories":[],"categories_nodes":[],"categories_segments":[],"categories_sizes":[],"default_left":[0,0,0,0,0],"id":44,"left_children":[1,-1,3,-1,-1],"loss_changes":[1.5056564E1,0E0,1.8231459E0,0E0,0E0],"parents":[2147483647,0,0,2,2],"right_children":[2,-1,4,-1,-1],"split_conditions":[2.08E2,-5.3881284E-2,1.75E1,6.0517948E-2,-3.6478557E-2],"split_indices":[2,0,1,0,0],"split_type":[0,0,0,0,0],"sum_hessian":[4.986144E1,2.3394598E1,2.646684E1,2.5018595E1,1.4482447E0],"tree_param":{"num_deleted":"0","num_feature":"7","num_nodes":"5","size_leaf_vector":"1"}},{"base_weights":[1.2189037E-1,5.8791417E-1,-4.277664E-1,1.410265E-1,6.316037E-2,-5.098408E-1,4.390138E-2,4.0345784E-2,-2.2325626E-2,-5.3259004E-2,4.1315952E-4],"categories":[],"categories_nodes":[],"categories_segments":[],"categories_sizes":[],"default_left":[0,0,0,0,0,0,0,0,0,0,0],"id":45,"left_children":[1,3,5,7,-1,9,-1,-1,-1,-1,-1],"loss_changes":[1.4693144E1,5.1484966E-1,2.1052895E0,4.765034E-1,0E0,2.9009485E-1,0E0,0E0,0E0,0E0,0E0],"parents":[2147483647,0,0,1,1,2,2,3,3,5,5],"right_children":[2,4,6,8,-1,10,-1,-1,-1,-1,-1],"split_conditions":[4.24E1,1.67E1,1E0,3.78E1,6.316037E-2,2.01E1,4.390138E-2,4.0345784E-2,-2.2325626E-2,-5.3259004E-2,4.1315952E-4],"split_indices":[0,1,6,0,0,1,0,0,0,0,0],"split_type":[0,0,0,0,0,0,0,0,0,0,0],"sum_hessian":[5.5378983E1,2.9931828E1,2.5447155E1,3.0421774E0,2.688965E1,2.3622196E1,1.8249578E0,1.7057822E0,1.3363951E0,2.258627E1,1.035928E0],"tree_param":{"num_deleted":"0","num_feature":"7","num_nodes":"11","size_leaf_vector":"1"}},{"base_weights":[-1.0080166E-1,-4.1587543E-1,1.8256126E-1,-1.5680026E-1,-5.1325727E-2,-4.984183E-2,5.550961E-1,-4.868126E-2,5.1420428E-2,6.1094046E-2,-8.5382955E-3],"categories":[],"categories_nodes":[],"categories_segments":[],"categories_sizes":[],"default_left":[0,0,0,0,0,0,0,0,0,0,0],"id":46,"left_children":[1,3,5,7,-1,-1,9,-1,-1,-1,-1],"loss_changes":[4.7961864E0,5.5881405E-1,7.5146127E0,2.1020994E0,0E0,0E0,7.287035E-1,0E0,0E0,0E0,0E0],"parents":[2147483647,0,0,1,1,2,2,3,3,6,6],"right_children":[2,4,6,8,-1,-1,10,-1,-1,-1,-1],"split_conditions":[4.52E1,3.425E3,1.65E1,4.06E1,-5.1325727E-2,-4.984183E-2,4.55E3,-4.868126E-2,5.1420428E-2,6.1094046E-2,-8.5382955E-3],"split_indices":[0,3,1,0,0,0,3,0,0,0,0],"split_type":[0,0,0,0,0,0,0,0,0,0,0],"sum_hessian":[5.1870197E1,2.433938E1,2.7530817E1,7.362446E0,1.6976934E1,9.6157255E0,1.7915092E1,5.1192207E0,2.243225E0,1.6520742E1,1.3943506E0],"tree_param":{"num_deleted":"0","num_feature":"7","num_nodes":"11","size_leaf_vector":"1"}},{"base_weights":[1.0799206E-2,-5.3576667E-2,5.176603E-1,5.899319E-2,-3.698248E-2],"categories":[],"categories_nodes":[],"categories_segments":[],"categories_sizes":[],"default_left":[0,0,0,0,0],"id":47,"left_children":[1,-1,3,-1,-1],"loss_changes":[1.3991774E1,0E0,1.8982449E0,0E0,0E0],"parents":[2147483647,0,0,2,2],"right_children":[2,-1,4,-1,-1],"split_conditions":[2.07E2,-5.3576667E-2,1.75E1,5.899319E-2,-3.698248E-2],"split_indices":[2,0,1,0,0],"split_type":[0,0,0,0,0],"sum_hessian":[4.8504677E1,2.3310802E1,2.5193874E1,2.3606756E1,1.5871183E0],"tree_param":{"num_deleted":"0","num_feature":"7","num_nodes":"5","size_leaf_vector":"1"}},{"base_weights":[1.2272499E-1,5.720365E-1,-3.8699493E-1,5.872056E-2,1.7095113E-2,-4.3677104E-1,3.732849E-2,-9.775915E-3,-5.0687533E-2],"categories":[],"categories_nodes":[],"categories_segments":[],"categories_sizes":[],"default_left":[0,0,0,0,0,0,0,0,0],"id":48,"left_children":[1,3,5,-1,-1,7,-1,-1,-1],"loss_changes":[1.2806312E1,7.976246E-2,1.1598861E0,0E0,0E0,5.4895973E-1,0E0,0E0,0E0],"parents":[2147483647,0,0,1,1,2,2,5,5],"right_children":[2,4,6,-1,-1,8,-1,-1,-1],"split_conditions":[4.24E1,4.625E3,1E0,5.872056E-2,1.7095113E-2,4.44E1,3.732849E-2,-9.775915E-3,-5.0687533E-2],"split_indices":[0,3,6,0,0,0,0,0,0],"split_type":[0,0,0,0,0,0,0,0,0],"sum_hessian":[5.3950523E1,2.8609426E1,2.5341097E1,2.7119717E1,1.4897087E0,2.418331E1,1.1577868E0,4.5542502E0,1.9629059E1],"tree_param":{"num_deleted":"0","num_feature":"7","num_nodes":"9","size_leaf_vector":"1"}},{"base_weights":[-1.7769125E-1,-5.242563E-2,1.3013229E-1,1.1054496E-4,3.6854443E-1,4.5245565E-2,-8.57183E-3,1.0783895E-2,4.065975E-2],"categories":[],"categories_nodes":[],"categories_segments":[],"categories_sizes":[],"default_left":[0,0,0,0,0,0,0,0,0],"id":49,"left_children":[1,-1,3,5,7,-1,-1,-1,-1],"loss_changes":[5.164238E0,0E0,8.090129E-1,7.333193E-1,4.7525525E-2,0E0,0E0,0E0,0E0],"parents":[2147483647,0,0,2,2,3,3,4,4],"right_children":[2,-1,4,6,8,-1,-1,-1,-1],"split_conditions":[1E0,-5.242563E-2,1.97E2,1.68E1,1.82E1,4.5245565E-2,-8.57183E-3,1.0783895E-2,4.065975E-2],"split_indices":[5,0,2,1,1,0,0,0,0],"split_type":[0,0,0,0,0,0,0,0,0],"sum_hessian":[4.6768787E1,2.1669237E1,2.509955E1,1.6889217E1,8.210333E0,2.0122774E0,1.4876941E1,1.534084E0,6.6762486E0],"tree_param":{"num_deleted":"0","num_feature":"7","num_nodes":"9","size_leaf_vector":"1"}},{"base_weights":[2.3995178E-2,-5.054312E-2,4.3651274E-1,5.232504E-1,-3.8314234E-2,1.7474253E-3,5.5282664E-2],"categories":[],"categories_nodes":[],"categories_segments":[],"categories_sizes":[],"default_left":[0,0,0,0,0,0,0],"id":50,"left_children":[1,-1,3,5,-1,-1,-1],"loss_changes":[1.009282E1,0E0,2.0449076E0,3.4760857E-1,0E0,0E0,0E0],"parents":[2147483647,0,0,2,2,3,3],"right_children":[2,-1,4,6,-1,-1,-1],"split_conditions":[4.2E3,-5.054312E-2,1E0,4.26E1,-3.8314234E-2,1.7474253E-3,5.5282664E-2],"split_indices":[3,0,5,0,0,0,0],"split_type":[0,0,0,0,0,0,0],"sum_hessian":[4.4202827E1,1.925967E1,2.494316E1,2.2883228E1,2.0599306E0,1.3521016E0,2.1531126E1],"tree_param":{"num_deleted":"0","num_feature":"7","num_nodes":"7","size_leaf_vector":"1"}},{"base_weights":[9.217592E-2,5.547908E-1,-3.8767117E-1,6.035829E-2,6.0237493E-2,-5.3896904E-2,-2.4175327E-2,3.3680726E-2,-2.3265345E-2,5.415342E-2,-4.7173627E-2],"categories":[],"categories_nodes":[],"categories_segments":[],"categories_sizes":[],"default_left":[0,0,0,0,0,0,0,0,0,0,0],"id":51,"left_children":[1,3,5,7,-1,-1,9,-1,-1,-1,-1],"loss_changes":[1.1920442E1,6.0496044E-1,1.4428213E0,3.6222735E-1,0E0,0E0,2.490376E0,0E0,0E0,0E0,0E0],"parents":[2147483647,0,0,1,1,2,2,3,3,6,6],"right_children":[2,4,6,8,-1,-1,10,-1,-1,-1,-1],"split_conditions":[4.24E1,1.67E1,1.83E1,3.78E1,6.0237493E-2,-5.3896904E-2,4.6E1,3.3680726E-2,-2.3265345E-2,5.415342E-2,-4.7173627E-2],"split_indices":[0,1,1,0,0,0,0,0,0,0,0],"split_type":[0,0,0,0,0,0,0,0,0,0,0],"sum_hessian":[5.173057E1,2.6258696E1,2.5471878E1,2.5044227E0,2.3754272E1,1.7644833E1,7.827045E0,1.2117249E0,1.2926977E0,3.3644586E0,4.4625864E0],"tree_param":{"num_deleted":"0","num_feature":"7","num_nodes":"11","size_leaf_vector":"1"}},{"base_weights":[-1.266842E-1,-5.1665332E-2,1.9255397E-1,-4.385879E-1,5.722917E-1,2.5632177E-3,-5.1536817E-2,1.4721525E-2,6.038037E-2],"categories":[],"categories_nodes":[],"categories_segments":[],"categories_sizes":[],"default_left":[0,0,0,0,0,0,0,0,0],"id":52,"left_children":[1,-1,3,5,7,-1,-1,-1,-1],"loss_changes":[5.6474876E0,0E0,6.298591E0,3.7124288E-1,1.2795162E-1,0E0,0E0,0E0,0E0],"parents":[2147483647,0,0,2,2,3,3,4,4],"right_children":[2,-1,4,6,8,-1,-1,-1,-1],"split_conditions":[1E0,-5.1665332E-2,4.24E1,3.25E3,4.33E1,2.5632177E-3,-5.1536817E-2,1.4721525E-2,6.038037E-2],"split_indices":[5,0,0,3,0,0,0,0,0],"split_type":[0,0,0,0,0,0,0,0,0],"sum_hessian":[4.3564785E1,1.9331623E1,2.423316E1,9.044989E0,1.5188171E1,1.3782333E0,7.6667557E0,1.4396719E0,1.37485E1],"tree_param":{"num_deleted":"0","num_feature":"7","num_nodes":"9","size_leaf_vector":"1"}},{"base_weights":[-2.2873411E-2,-5.234688E-2,4.95658E-1,5.6394674E-2,-3.3061E-2],"categories":[],"categories_nodes":[],"categories_segments":[],"categories_sizes":[],"default_left":[0,0,0,0,0],"id":53,"left_children":[1,-1,3,-1,-1],"loss_changes":[1.1217096E1,0E0,1.3854222E0,0E0,0E0],"parents":[2147483647,0,0,2,2],"right_children":[2,-1,4,-1,-1],"split_conditions":[2.08E2,-5.234688E-2,1.75E1,5.6394674E-2,-3.3061E-2],"split_indices":[2,0,1,0,0],"split_type":[0,0,0,0,0],"sum_hessian":[4.121384E1,2.0964745E1,2.0249096E1,1.8996561E1,1.2525352E0],"tree_param":{"num_deleted":"0","num_feature":"7","num_nodes":"5","size_leaf_vector":"1"}},{"base_weights":[8.116876E-2,5.492484E-1,-3.9677465E-1,5.864343E-2,2.706815E-1,-4.6986192E-1,3.9956324E-2,-2.0573448E-2,4.5773756E-2,-1.769822E-2,-5.2720558E-2],"categories":[],"categories_nodes":[],"categories_segments":[],"categories_sizes":[],"default_left":[0,0,0,0,0,0,0,0,0,0,0],"id":54,"left_children":[1,3,5,-1,7,9,-1,-1,-1,-1,-1],"loss_changes":[1.1082636E1,9.976578E-2,1.6200836E0,0E0,5.215918E-1,2.929845E-1,0E0,0E0,0E0,0E0,0E0],"parents":[2147483647,0,0,1,1,2,2,4,4,5,5],"right_children":[2,4,6,-1,8,10,-1,-1,-1,-1,-1],"split_conditions":[4.24E1,4.09E1,1E0,5.864343E-2,4.1E1,4.44E1,3.9956324E-2,-2.0573448E-2,4.5773756E-2,-1.769822E-2,-5.2720558E-2],"split_indices":[0,0,6,0,0,0,0,0,0,0,0],"split_type":[0,0,0,0,0,0,0,0,0,0,0],"sum_hessian":[4.7564823E1,2.3955008E1,2.3609814E1,2.0158821E1,3.7961862E0,2.200059E1,1.6092253E0,1.0421258E0,2.7540605E0,4.27133E0,1.772926E1],"tree_param":{"num_deleted":"0","num_feature":"7","num_nodes":"11","size_leaf_vector":"1"}},{"base_weights":[-1.3366805E-1,-4.3529794E-1,1.8515244E-1,-5.245511E-2,-1.5200658E-1,5.358575E-1,-4.1085687E-1,3.8807645E-2,-4.9279254E-2,1.1865271E-2,5.61556E-2,-5.8474997E-3,-4.6175253E-2],"categories":[],"categories_nodes":[],"categories_segments":[],"categories_sizes":[],"default_left":[0,0,0,0,0,0,0,0,0,0,0,0,0],"id":55,"left_children":[1,3,5,-1,7,9,11,-1,-1,-1,-1,-1,-1],"loss_changes":[4.028325E0,4.6117306E-1,4.538277E0,0E0,1.3937013E0,7.746363E-2,1.2040198E-1,0E0,0E0,0E0,0E0,0E0,0E0],"parents":[2147483647,0,0,1,1,2,2,4,4,5,5,6,6],"right_children":[2,4,6,-1,8,10,12,-1,-1,-1,-1,-1,-1],"split_conditions":[4.55E1,4.21E1,4.475E3,-5.245511E-2,3.975E3,4.6E1,4.85E3,3.8807645E-2,-4.9279254E-2,1.1865271E-2,5.61556E-2,-5.8474997E-3,-4.6175253E-2],"split_indices":[0,0,3,0,3,0,3,0,0,0,0,0,0],"split_type":[0,0,0,0,0,0,0,0,0,0,0,0,0],"sum_hessian":[4.0051277E1,2.0392752E1,1.9658525E1,1.4859514E1,5.5332375E0,1.24396715E1,7.2188535E0,2.0869834E0,3.4462538E0,1.0477036E0,1.1391968E1,1.18226E0,6.0365934E0],"tree_param":{"num_deleted":"0","num_feature":"7","num_nodes":"13","size_leaf_vector":"1"}},{"base_weights":[-2.0747999E-2,-5.1677715E-2,4.7742608E-1,5.5130698E-2,-3.2347903E-2],"categories":[],"categories_nodes":[],"categories_segments":[],"categories_sizes":[],"default_left":[0,0,0,0,0],"id":56,"left_children":[1,-1,3,-1,-1],"loss_changes":[9.230989E0,0E0,1.2824383E0,0E0,0E0],"parents":[2147483647,0,0,2,2],"right_children":[2,-1,4,-1,-1],"split_conditions":[2.07E2,-5.1677715E-2,1.75E1,5.5130698E-2,-3.2347903E-2],"split_indices":[2,0,1,0,0],"split_type":[0,0,0,0,0],"sum_hessian":[3.535752E1,1.7698189E1,1.7659332E1,1.645322E1,1.2061113E0],"tree_param":{"num_deleted":"0","num_feature":"7","num_nodes":"5","size_leaf_vector":"1"}},{"base_weights":[1.3684955E-1,5.352562E-1,-3.622656E-1,5.511598E-2,6.116385E-3,-4.2580572E-1,3.6535162E-2,-2.1902418E-2,-5.107261E-2],"categories":[],"categories_nodes":[],"categories_segments":[],"categories_sizes":[],"default_left":[0,0,0,0,0,0,0,0,0],"id":57,"left_children":[1,3,5,-1,-1,7,-1,-1,-1],"loss_changes":[9.708277E0,1.6994762E-1,1.165082E0,0E0,0E0,2.4888206E-1,0E0,0E0,0E0],"parents":[2147483647,0,0,1,1,2,2,5,5],"right_children":[2,4,6,-1,-1,8,-1,-1,-1],"split_conditions":[4.24E1,4.5E3,1E0,5.511598E-2,6.116385E-3,4.57E1,3.6535162E-2,-2.1902418E-2,-5.107261E-2],"split_indices":[0,3,6,0,0,0,0,0,0],"split_type":[0,0,0,0,0,0,0,0,0],"sum_hessian":[4.6846786E1,2.60114E1,2.0835386E1,2.500988E1,1.0015216E0,1.9543516E1,1.2918692E0,6.7314863E0,1.2812031E1],"tree_param":{"num_deleted":"0","num_feature":"7","num_nodes":"9","size_leaf_vector":"1"}},{"base_weights":[-7.920298E-2,-4.558451E-1,1.6012637E-1,-8.6621046E-2,-5.0875206E-2,5.3717893E-2,-3.4564286E-1,-2.8447568E-2,1.4956037E-2,6.0932958E-3,-4.2224657E-2],"categories":[],"categories_nodes":[],"categories_segments":[],"categories_sizes":[],"default_left":[0,0,0,0,0,0,0,0,0,0,0],"id":58,"left_children":[1,3,5,7,-1,-1,9,-1,-1,-1,-1],"loss_changes":[3.4569805E0,2.4594188E-1,4.7043023E0,1.858146E-1,0E0,0E0,3.5986996E-1,0E0,0E0,0E0,0E0],"parents":[2147483647,0,0,1,1,2,2,3,3,6,6],"right_children":[2,4,6,8,-1,-1,10,-1,-1,-1,-1],"split_conditions":[4.24E1,3.25E3,2.07E2,1.86E2,-5.0875206E-2,5.3717893E-2,4.35E3,-2.8447568E-2,1.4956037E-2,6.0932958E-3,-4.2224657E-2],"split_indices":[0,3,2,2,0,0,3,0,0,0,0],"split_type":[0,0,0,0,0,0,0,0,0,0,0],"sum_hessian":[3.6540833E1,1.384606E1,2.269477E1,2.065902E0,1.1780158E1,1.2966271E1,9.728499E0,1.0128961E0,1.0530059E0,1.5747969E0,8.153703E0],"tree_param":{"num_deleted":"0","num_feature":"7","num_nodes":"11","size_leaf_vector":"1"}},{"base_weights":[4.2908094E-3,5.042445E-1,-4.3424976E-1,-2.111758E-4,5.418883E-2,-5.159829E-2,3.603723E-2],"categories":[],"categories_nodes":[],"categories_segments":[],"categories_sizes":[],"default_left":[0,0,0,0,0,0,0],"id":59,"left_children":[1,3,5,-1,-1,-1,-1],"loss_changes":[8.701092E0,3.5454655E-1,1.5593531E0,0E0,0E0,0E0,0E0],"parents":[2147483647,0,0,1,1,2,2],"right_children":[2,4,6,-1,-1,-1,-1],"split_conditions":[1.66E1,4.2E1,4.75E3,-2.111758E-4,5.418883E-2,-5.159829E-2,3.603723E-2],"split_indices":[1,0,3,0,0,0,0],"split_type":[0,0,0,0,0,0,0],"sum_hessian":[3.7687E1,1.7540411E1,2.014659E1,1.2790805E0,1.626133E1,1.8585571E1,1.5610172E0],"tree_param":{"num_deleted":"0","num_feature":"7","num_nodes":"7","size_leaf_vector":"1"}},{"base_weights":[9.2663385E-2,4.6591488E-1,-4.216688E-1,-6.7332886E-2,5.323463E-1,-4.9064692E-2,6.962627E-2,3.3925056E-2,-4.3534625E-2,5.6259163E-2,1.9867795E-2,3.8650345E-2,-2.8753102E-2],"categories":[],"categories_nodes":[],"categories_segments":[],"categories_sizes":[],"default_left":[0,0,0,0,0,0,0,0,0,0,0,0,0],"id":60,"left_children":[1,3,5,7,9,-1,11,-1,-1,-1,-1,-1,-1],"loss_changes":[8.5044365E0,9.4103E-1,6.6868186E-1,7.0406723E-1,1.1866522E-1,0E0,4.7112992E-1,0E0,0E0,0E0,0E0,0E0,0E0],"parents":[2147483647,0,0,1,1,2,2,3,3,4,4,6,6],"right_children":[2,4,6,8,10,-1,12,-1,-1,-1,-1,-1,-1],"split_conditions":[4.33E1,1.68E1,1.97E1,3.82E1,4.24E1,-4.9064692E-2,4.94E1,3.3925056E-2,-4.3534625E-2,5.6259163E-2,1.9867795E-2,3.8650345E-2,-2.8753102E-2],"split_indices":[0,1,1,0,0,0,0,0,0,0,0,0,0],"split_type":[0,0,0,0,0,0,0,0,0,0,0,0,0],"sum_hessian":[4.227628E1,2.4552578E1,1.77237E1,2.71839E0,2.1834188E1,1.5542801E1,2.1808984E0,1.3286481E0,1.3897419E0,1.9390467E1,2.4437225E0,1.1120762E0,1.0688223E0],"tree_param":{"num_deleted":"0","num_feature":"7","num_nodes":"13","size_leaf_vector":"1"}},{"base_weights":[-1.17954455E-1,4.6969455E-2,-4.3306958E-2,1.2178769E-1,-4.010445E-2,-4.532828E-3,2.777986E-2],"categories":[],"categories_nodes":[],"categories_segments":[],"categories_sizes":[],"default_left":[0,0,0,0,0,0,0],"id":61,"left_children":[1,3,-1,5,-1,-1,-1],"loss_changes":[2.0051122E0,9.194109E-1,0E0,6.1282885E-1,0E0,0E0,0E0],"parents":[2147483647,0,0,1,1,3,3],"right_children":[2,4,-1,6,-1,-1,-1],"split_conditions":[4.2E3,1E0,-4.3306958E-2,1.93E2,-4.010445E-2,-4.532828E-3,2.777986E-2],"split_indices":[3,6,0,2,0,0,0],"split_type":[0,0,0,0,0,0,0],"sum_hessian":[3.7190693E1,2.4971918E1,1.2218775E1,2.2022352E1,2.949567E0,1.0975286E1,1.1047066E1],"tree_param":{"num_deleted":"0","num_feature":"7","num_nodes":"7","size_leaf_vector":"1"}},{"base_weights":[1.0295676E-2,-5.0587445E-2,4.8787028E-1,5.3619653E-2,-6.4573823E-3],"categories":[],"categories_nodes":[],"categories_segments":[],"categories_sizes":[],"default_left":[0,0,0,0,0],"id":62,"left_children":[1,-1,3,-1,-1],"loss_changes":[8.514261E0,0E0,5.132952E-1,0E0,0E0],"parents":[2147483647,0,0,2,2],"right_children":[2,-1,4,-1,-1],"split_conditions":[2.08E2,-5.0587445E-2,1.71E1,5.3619653E-2,-6.4573823E-3],"split_indices":[2,0,1,0,0],"split_type":[0,0,0,0,0],"sum_hessian":[3.2538067E1,1.5608691E1,1.6929375E1,1.5594612E1,1.3347634E0],"tree_param":{"num_deleted":"0","num_feature":"7","num_nodes":"5","size_leaf_vector":"1"}},{"base_weights":[1.0796946E-1,4.405562E-1,-4.463421E-1,-1.6706015E-1,5.451546E-2,-4.7850486E-2,8.6632784E-4,3.26893E-2,-4.5860164E-2],"categories":[],"categories_nodes":[],"categories_segments":[],"categories_sizes":[],"default_left":[0,0,0,0,0,0,0,0,0],"id":63,"left_children":[1,3,5,7,-1,-1,-1,-1,-1],"loss_changes":[7.547809E0,1.7069745E0,2.3024035E-1,7.9786766E-1,0E0,0E0,0E0,0E0,0E0],"parents":[2147483647,0,0,1,1,2,2,3,3],"right_children":[2,4,6,8,-1,-1,-1,-1,-1],"split_conditions":[4.44E1,1.68E1,1.99E1,3.82E1,5.451546E-2,-4.7850486E-2,8.6632784E-4,3.26893E-2,-4.5860164E-2],"split_indices":[0,1,1,0,0,0,0,0,0],"split_type":[0,0,0,0,0,0,0,0,0],"sum_hessian":[3.8874718E1,2.4424965E1,1.4449751E1,3.499436E0,2.092553E1,1.3447545E1,1.0022058E0,1.253833E0,2.2456028E0],"tree_param":{"num_deleted":"0","num_feature":"7","num_nodes":"9","size_leaf_vector":"1"}},{"base_weights":[-1.6170354E-1,-4.56024E-1,1.5912005E-1,-8.923265E-2,-5.3284567E-2,-4.500895E-2,5.0180095E-1,-3.5939023E-2,3.1629853E-2,5.3955592E-2,9.130653E-3],"categories":[],"categories_nodes":[],"categories_segments":[],"categories_sizes":[],"default_left":[0,0,0,0,0,0,0,0,0,0,0],"id":64,"left_children":[1,3,5,7,-1,-1,9,-1,-1,-1,-1],"loss_changes":[3.3264549E0,4.6615934E-1,3.8226645E0,5.9115547E-1,0E0,0E0,1.2895489E-1,0E0,0E0,0E0,0E0],"parents":[2147483647,0,0,1,1,2,2,3,3,6,6],"right_children":[2,4,6,8,-1,-1,10,-1,-1,-1,-1],"split_conditions":[4.52E1,1.68E1,1.65E1,1.66E1,-5.3284567E-2,-4.500895E-2,4.45E3,-3.5939023E-2,3.1629853E-2,5.3955592E-2,9.130653E-3],"split_indices":[0,1,1,1,0,0,3,0,0,0,0],"split_type":[0,0,0,0,0,0,0,0,0,0,0],"sum_hessian":[3.3460094E1,1.7231066E1,1.6229029E1,3.3582742E0,1.3872791E1,5.7296195E0,1.049941E1,2.0838377E0,1.2744362E0,9.3271475E0,1.1722627E0],"tree_param":{"num_deleted":"0","num_feature":"7","num_nodes":"11","size_leaf_vector":"1"}},{"base_weights":[-1.752218E-2,-5.0246354E-2,4.445964E-1,-9.452832E-4,5.0397243E-2],"categories":[],"categories_nodes":[],"categories_segments":[],"categories_sizes":[],"default_left":[0,0,0,0,0],"id":65,"left_children":[1,-1,3,-1,-1],"loss_changes":[7.473443E0,0E0,4.6567345E-1,0E0,0E0],"parents":[2147483647,0,0,2,2],"right_children":[2,-1,4,-1,-1],"split_conditions":[2.08E2,-5.0246354E-2,4.35E3,-9.452832E-4,5.0397243E-2],"split_indices":[2,0,3,0,0],"split_type":[0,0,0,0,0],"sum_hessian":[3.1351795E1,1.5255531E1,1.6096264E1,1.9587181E0,1.4137545E1],"tree_param":{"num_deleted":"0","num_feature":"7","num_nodes":"5","size_leaf_vector":"1"}},{"base_weights":[9.233898E-2,2.8477558E-1,-3.4895465E-1,1.4178325E-1,4.0673772E-1,-5.673927E-2,-4.6785343E-2,6.042292E-3,3.889564E-2,1.7717639E-2,4.780471E-2,-2.8982798E-2,9.275647E-3],"categories":[],"categories_nodes":[],"categories_segments":[],"categories_sizes":[],"default_left":[0,0,0,0,0,0,0,0,0,0,0,0,0],"id":66,"left_children":[1,3,5,7,9,11,-1,-1,-1,-1,-1,-1,-1],"loss_changes":[3.372551E0,4.200089E-1,3.957144E-1,2.6092035E-1,1.4852381E-1,1.8901816E-1,0E0,0E0,0E0,0E0,0E0,0E0,0E0],"parents":[2147483647,0,0,1,1,2,2,3,3,4,4,5,5],"right_children":[2,4,6,8,10,12,-1,-1,-1,-1,-1,-1,-1],"split_conditions":[2E2,1.83E1,4.35E3,1E0,3.675E3,1E0,-4.6785343E-2,6.042292E-3,3.889564E-2,1.7717639E-2,4.780471E-2,-2.8982798E-2,9.275647E-3],"split_indices":[2,1,3,6,3,4,0,0,0,0,0,0,0],"split_type":[0,0,0,0,0,0,0,0,0,0,0,0,0],"sum_hessian":[3.754377E1,2.6390322E1,1.1153449E1,1.3143259E1,1.3247063E1,3.6529255E0,7.500523E0,1.082464E1,2.318619E0,3.9655747E0,9.281487E0,1.0605882E0,2.5923371E0],"tree_param":{"num_deleted":"0","num_feature":"7","num_nodes":"13","size_leaf_vector":"1"}},{"base_weights":[-1.1675366E-1,-4.9490638E-2,1.4700022E-1,-4.7862496E-2,4.3008164E-1,5.5603627E-3,5.424731E-2],"categories":[],"categories_nodes":[],"categories_segments":[],"categories_sizes":[],"default_left":[0,0,0,0,0,0,0],"id":67,"left_children":[1,-1,3,-1,5,-1,-1],"loss_changes":[3.519937E0,0E0,3.9483428E0,0E0,6.0433507E-1,0E0,0E0],"parents":[2147483647,0,0,2,2,4,4],"right_children":[2,-1,4,-1,6,-1,-1],"split_conditions":[1E0,-4.9490638E-2,4.09E1,-4.7862496E-2,4.44E1,5.5603627E-3,5.424731E-2],"split_indices":[5,0,0,0,0,0,0],"split_type":[0,0,0,0,0,0,0],"sum_hessian":[3.356198E1,1.3430226E1,2.0131758E1,6.056281E0,1.4075476E1,3.5943062E0,1.048117E1],"tree_param":{"num_deleted":"0","num_feature":"7","num_nodes":"7","size_leaf_vector":"1"}},{"base_weights":[-2.8802038E-3,-4.981172E-2,4.5997962E-1,5.2166976E-2,-1.1470571E-2],"categories":[],"categories_nodes":[],"categories_segments":[],"categories_sizes":[],"default_left":[0,0,0,0,0],"id":68,"left_children":[1,-1,3,-1,-1],"loss_changes":[7.3605456E0,0E0,6.48386E-1,0E0,0E0],"parents":[2147483647,0,0,2,2],"right_children":[2,-1,4,-1,-1],"split_conditions":[2.08E2,-4.981172E-2,1.71E1,5.2166976E-2,-1.1470571E-2],"split_indices":[2,0,1,0,0],"split_type":[0,0,0,0,0],"sum_hessian":[3.011097E1,1.4509912E1,1.5601057E1,1.4172002E1,1.4290549E0],"tree_param":{"num_deleted":"0","num_feature":"7","num_nodes":"5","size_leaf_vector":"1"}},{"base_weights":[1.0632509E-1,5.333611E-2,-4.0173045E-1,-4.898538E-2,-4.9614172E-2,-2.993289E-2,1.8193617E-2],"categories":[],"categories_nodes":[],"categories_segments":[],"categories_sizes":[],"default_left":[0,0,0,0,0,0,0],"id":69,"left_children":[1,-1,3,5,-1,-1,-1],"loss_changes":[7.653672E0,0E0,5.1619625E-1,3.166975E-1,0E0,0E0,0E0],"parents":[2147483647,0,0,2,2,3,3],"right_children":[2,-1,4,6,-1,-1,-1],"split_conditions":[4.24E1,5.333611E-2,4.44E1,3.975E3,-4.9614172E-2,-2.993289E-2,1.8193617E-2],"split_indices":[0,0,0,3,0,0,0],"split_type":[0,0,0,0,0,0,0],"sum_hessian":[3.3289608E1,1.8059906E1,1.5229704E1,3.5362408E0,1.1693463E1,1.5546255E0,1.9816153E0],"tree_param":{"num_deleted":"0","num_feature":"7","num_nodes":"7","size_leaf_vector":"1"}},{"base_weights":[-9.1160916E-2,-4.523489E-2,1.5052378E-2,8.346739E-2,-3.9271127E-2,-6.462655E-4,2.8149614E-2],"categories":[],"categories_nodes":[],"categories_segments":[],"categories_sizes":[],"default_left":[0,0,0,0,0,0,0],"id":70,"left_children":[1,-1,3,5,-1,-1,-1],"loss_changes":[1.2287431E0,0E0,7.4643296E-1,4.0662766E-1,0E0,0E0,0E0],"parents":[2147483647,0,0,2,2,3,3],"right_children":[2,-1,4,6,-1,-1,-1],"split_conditions":[1.64E1,-4.523489E-2,1E0,1.97E2,-3.9271127E-2,-6.462655E-4,2.8149614E-2],"split_indices":[1,0,6,2,0,0,0],"split_type":[0,0,0,0,0,0,0],"sum_hessian":[3.0851923E1,6.270305E0,2.4581617E1,2.173089E1,2.8507268E0,1.560955E1,6.1213403E0],"tree_param":{"num_deleted":"0","num_feature":"7","num_nodes":"7","size_leaf_vector":"1"}},{"base_weights":[1.011624E-2,-4.894056E-2,4.2910874E-1,-1.6592721E-3,4.8912317E-2],"categories":[],"categories_nodes":[],"categories_segments":[],"categories_sizes":[],"default_left":[0,0,0,0,0],"id":71,"left_children":[1,-1,3,-1,-1],"loss_changes":[5.9938416E0,0E0,4.2436576E-1,0E0,0E0],"parents":[2147483647,0,0,2,2],"right_children":[2,-1,4,-1,-1],"split_conditions":[2.08E2,-4.894056E-2,4.35E3,-1.6592721E-3,4.8912317E-2],"split_indices":[2,0,3,0,0],"split_type":[0,0,0,0,0],"sum_hessian":[2.663472E1,1.2073121E1,1.45616E1,1.8139198E0,1.274768E1],"tree_param":{"num_deleted":"0","num_feature":"7","num_nodes":"5","size_leaf_vector":"1"}},{"base_weights":[9.038174E-2,4.7753116E-1,-3.4638542E-1,6.742903E-3,5.3593583E-2,-4.287597E-1,3.5342596E-2,2.827566E-2,-2.605435E-2,-1.6939176E-2,-4.909646E-2],"categories":[],"categories_nodes":[],"categories_segments":[],"categories_sizes":[],"default_left":[0,0,0,0,0,0,0,0,0,0,0],"id":72,"left_children":[1,3,5,7,-1,9,-1,-1,-1,-1,-1],"loss_changes":[6.064359E0,5.164399E-1,1.1299071E0,3.0238354E-1,0E0,1.6911244E-1,0E0,0E0,0E0,0E0,0E0],"parents":[2147483647,0,0,1,1,2,2,3,3,5,5],"right_children":[2,4,6,8,-1,10,-1,-1,-1,-1,-1],"split_conditions":[4.24E1,1.67E1,1E0,3.78E1,5.3593583E-2,1.93E2,3.5342596E-2,2.827566E-2,-2.605435E-2,-1.6939176E-2,-4.909646E-2],"split_indices":[0,1,6,0,0,2,0,0,0,0,0],"split_type":[0,0,0,0,0,0,0,0,0,0,0],"sum_hessian":[3.388559E1,1.7913645E1,1.5971945E1,2.1001568E0,1.5813488E1,1.4636424E1,1.335521E0,1.004736E0,1.0954207E0,3.5514638E0,1.108496E1],"tree_param":{"num_deleted":"0","num_feature":"7","num_nodes":"11","size_leaf_vector":"1"}},{"base_weights":[-9.533963E-2,7.017768E-2,-3.5127696E-1,1.5442187E-1,-3.6974885E-2,-4.5022655E-2,-1.7419155E-1,-1.2820263E-2,2.3237756E-2,-3.524295E-2,2.433735E-2],"categories":[],"categories_nodes":[],"categories_segments":[],"categories_sizes":[],"default_left":[0,0,0,0,0,0,0,0,0,0,0],"id":73,"left_children":[1,3,5,7,-1,-1,9,-1,-1,-1,-1],"loss_changes":[1.3043606E0,7.678748E-1,1.3237727E-1,3.9996535E-1,0E0,0E0,5.281264E-1,0E0,0E0,0E0,0E0],"parents":[2147483647,0,0,1,1,2,2,3,3,6,6],"right_children":[2,4,6,8,-1,-1,10,-1,-1,-1,-1],"split_conditions":[4.075E3,1E0,1.82E1,1.87E2,-3.6974885E-2,-4.5022655E-2,2E2,-1.2820263E-2,2.3237756E-2,-3.524295E-2,2.433735E-2],"split_indices":[3,6,1,2,0,0,2,0,0,0,0],"split_type":[0,0,0,0,0,0,0,0,0,0,0],"sum_hessian":[2.9208843E1,1.8178452E1,1.1030392E1,1.5801508E1,2.3769438E0,6.086838E0,4.9435534E0,3.2768588E0,1.2524649E1,3.5739846E0,1.3695687E0],"tree_param":{"num_deleted":"0","num_feature":"7","num_nodes":"11","size_leaf_vector":"1"}},{"base_weights":[-5.4555084E-3,-4.8568357E-2,4.1647628E-1,5.079142E-2,-3.1606816E-2],"categories":[],"categories_nodes":[],"categories_segments":[],"categories_sizes":[],"default_left":[0,0,0,0,0],"id":74,"left_children":[1,-1,3,-1,-1],"loss_changes":[5.4652877E0,0E0,1.1227193E0,0E0,0E0],"parents":[2147483647,0,0,2,2],"right_children":[2,-1,4,-1,-1],"split_conditions":[2.08E2,-4.8568357E-2,1.75E1,5.079142E-2,-3.1606816E-2],"split_indices":[2,0,1,0,0],"split_type":[0,0,0,0,0],"sum_hessian":[2.4974344E1,1.1609603E1,1.336474E1,1.2154261E1,1.2104796E0],"tree_param":{"num_deleted":"0","num_feature":"7","num_nodes":"5","size_leaf_vector":"1"}},{"base_weights":[1.0453659E-1,4.0391162E-1,-4.605447E-2,-1.7137009E-1,5.023461E-1,2.9876916E-2,-4.427695E-2,2.5877658E-2,5.5472832E-2],"categories":[],"categories_nodes":[],"categories_segments":[],"categories_sizes":[],"default_left":[0,0,0,0,0,0,0,0,0],"id":75,"left_children":[1,3,-1,5,7,-1,-1,-1,-1],"loss_changes":[5.882122E0,1.3626251E0,0E0,6.4767927E-1,1.05288506E-1,0E0,0E0,0E0,0E0],"parents":[2147483647,0,0,1,1,3,3,4,4],"right_children":[2,4,-1,6,8,-1,-1,-1,-1],"split_conditions":[4.44E1,1.68E1,-4.605447E-2,3.96E1,1.75E1,2.9876916E-2,-4.427695E-2,2.5877658E-2,5.5472832E-2],"split_indices":[0,1,0,0,1,0,0,0,0],"split_type":[0,0,0,0,0,0,0,0,0],"sum_hessian":[3.2670635E1,2.1542713E1,1.1127923E1,3.0392756E0,1.8503437E1,1.0754502E0,1.9638253E0,4.3264165E0,1.417702E1],"tree_param":{"num_deleted":"0","num_feature":"7","num_nodes":"9","size_leaf_vector":"1"}},{"base_weights":[-1.1414045E-1,-4.820246E-2,1.3788596E-1,-4.6095695E-2,4.167789E-1,5.197209E-2,4.279259E-3],"categories":[],"categories_nodes":[],"categories_segments":[],"categories_sizes":[],"default_left":[0,0,0,0,0,0,0],"id":76,"left_children":[1,-1,3,-1,5,-1,-1],"loss_changes":[2.74917E0,0E0,3.1897779E0,0E0,4.6942163E-1,0E0,0E0],"parents":[2147483647,0,0,2,2,4,4],"right_children":[2,-1,4,-1,6,-1,-1],"split_conditions":[1E0,-4.820246E-2,4.09E1,-4.6095695E-2,4.075E3,5.197209E-2,4.279259E-3],"split_indices":[5,0,0,0,3,0,0],"split_type":[0,0,0,0,0,0,0],"sum_hessian":[2.7934492E1,1.0985829E1,1.6948664E1,5.1778655E0,1.1770798E1,8.924574E0,2.846223E0],"tree_param":{"num_deleted":"0","num_feature":"7","num_nodes":"7","size_leaf_vector":"1"}},{"base_weights":[-1.7038295E-2,-4.8522104E-2,4.339793E-1,5.0058644E-2,-1.792357E-2],"categories":[],"categories_nodes":[],"categories_segments":[],"categories_sizes":[],"default_left":[0,0,0,0,0],"id":77,"left_children":[1,-1,3,-1,-1],"loss_changes":[5.5271688E0,0E0,6.3508105E-1,0E0,0E0],"parents":[2147483647,0,0,2,2],"right_children":[2,-1,4,-1,-1],"split_conditions":[2.07E2,-4.8522104E-2,1.71E1,5.0058644E-2,-1.792357E-2],"split_indices":[2,0,1,0,0],"split_type":[0,0,0,0,0],"sum_hessian":[2.4178188E1,1.1826133E1,1.2352056E1,1.1307508E1,1.0445473E0],"tree_param":{"num_deleted":"0","num_feature":"7","num_nodes":"5","size_leaf_vector":"1"}},{"base_weights":[9.9176034E-2,3.8312286E-1,-4.3400344E-1,4.7677875E-1,4.7697745E-2,-1.0302795E-2,-4.7361612E-2,1.3738574E-2,5.2047145E-2,-4.28891E-2,5.1963132E-2],"categories":[],"categories_nodes":[],"categories_segments":[],"categories_sizes":[],"default_left":[0,0,0,0,0,0,0,0,0,0,0],"id":78,"left_children":[1,3,5,7,9,-1,-1,-1,-1,-1,-1],"loss_changes":[4.6863503E0,6.059418E-1,9.337473E-2,1.5883613E-1,1.4552613E0,0E0,0E0,0E0,0E0,0E0,0E0],"parents":[2147483647,0,0,1,1,2,2,3,3,4,4],"right_children":[2,4,6,8,10,-1,-1,-1,-1,-1,-1],"split_conditions":[4.44E1,4.24E1,1.92E2,3.25E3,1E0,-1.0302795E-2,-4.7361612E-2,1.3738574E-2,5.2047145E-2,-4.28891E-2,5.1963132E-2],"split_indices":[0,0,2,3,4,0,0,0,0,0,0],"split_type":[0,0,0,0,0,0,0,0,0,0,0],"sum_hessian":[2.8856237E1,1.9012495E1,9.843742E0,1.4533188E1,4.4793077E0,1.4371144E0,8.406628E0,2.1302607E0,1.2402927E1,2.2740407E0,2.205267E0],"tree_param":{"num_deleted":"0","num_feature":"7","num_nodes":"11","size_leaf_vector":"1"}},{"base_weights":[-8.957691E-2,-3.5452527E-1,5.893808E-2,-4.411328E-2,-1.3531984E-1,1.2621969E-1,-3.4368705E-2,1.0357868E-2,-2.7191564E-2,2.849086E-2,-2.5272433E-4],"categories":[],"categories_nodes":[],"categories_segments":[],"categories_sizes":[],"default_left":[0,0,0,0,0,0,0,0,0,0,0],"id":79,"left_children":[1,3,5,-1,7,9,-1,-1,-1,-1,-1],"loss_changes":[1.08542E0,1.2749887E-1,5.362269E-1,0E0,1.6636078E-1,3.341469E-1,0E0,0E0,0E0,0E0,0E0],"parents":[2147483647,0,0,1,1,2,2,4,4,5,5],"right_children":[2,4,6,-1,8,10,-1,-1,-1,-1,-1],"split_conditions":[1.73E1,1.66E1,1E0,-4.411328E-2,1.69E1,1.83E1,-3.4368705E-2,1.0357868E-2,-2.7191564E-2,2.849086E-2,-2.5272433E-4],"split_indices":[1,1,6,0,1,1,0,0,0,0,0],"split_type":[0,0,0,0,0,0,0,0,0,0,0],"sum_hessian":[2.6053555E1,8.860115E0,1.719344E1,5.625197E0,3.234918E0,1.5319882E1,1.8735565E0,1.2647153E0,1.9702029E0,6.3187184E0,9.001164E0],"tree_param":{"num_deleted":"0","num_feature":"7","num_nodes":"11","size_leaf_vector":"1"}},{"base_weights":[1.5598375E-3,-4.7877897E-2,4.1646957E-1,4.9492363E-2,-1.4185714E-2],"categories":[],"categories_nodes":[],"categories_segments":[],"categories_sizes":[],"default_left":[0,0,0,0,0],"id":80,"left_children":[1,-1,3,-1,-1],"loss_changes":[4.9124928E0,0E0,6.494272E-1,0E0,0E0],"parents":[2147483647,0,0,2,2],"right_children":[2,-1,4,-1,-1],"split_conditions":[2.08E2,-4.7877897E-2,1.71E1,4.9492363E-2,-1.4185714E-2],"split_indices":[2,0,1,0,0],"split_type":[0,0,0,0,0],"sum_hessian":[2.2648577E1,1.0425313E1,1.2223264E1,1.0816875E1,1.406389E0],"tree_param":{"num_deleted":"0","num_feature":"7","num_nodes":"5","size_leaf_vector":"1"}},{"base_weights":[8.742934E-2,2.628627E-1,-2.823449E-1,4.8650805E-2,1.006763E-1,-5.5794474E-2,-4.2919513E-2,1.3437907E-3,3.1719923E-2,1.3436879E-2,-1.5285675E-2],"categories":[],"categories_nodes":[],"categories_segments":[],"categories_sizes":[],"default_left":[0,0,0,0,0,0,0,0,0,0,0],"id":81,"left_children":[1,3,5,-1,7,9,-1,-1,-1,-1,-1],"loss_changes":[1.9374791E0,6.764046E-1,2.995718E-1,0E0,2.3851676E-1,1.1234373E-1,0E0,0E0,0E0,0E0,0E0],"parents":[2147483647,0,0,1,1,2,2,4,4,5,5],"right_children":[2,4,6,-1,8,10,-1,-1,-1,-1,-1],"split_conditions":[1.98E2,1E0,2.09E2,4.8650805E-2,3.825E3,1E0,-4.2919513E-2,1.3437907E-3,3.1719923E-2,1.3436879E-2,-1.5285675E-2],"split_indices":[2,5,2,0,3,5,0,0,0,0,0],"split_type":[0,0,0,0,0,0,0,0,0,0,0],"sum_hessian":[2.7722672E1,1.8998343E1,8.724329E0,7.1454763E0,1.1852867E1,3.9737859E0,4.750543E0,9.20584E0,2.6470263E0,1.2129778E0,2.760808E0],"tree_param":{"num_deleted":"0","num_feature":"7","num_nodes":"11","size_leaf_vector":"1"}},{"base_weights":[-9.124531E-2,-4.731833E-2,1.54662E-1,-2.730298E-1,5.0900698E-2,3.3272374E-2,-4.1381523E-2],"categories":[],"categories_nodes":[],"categories_segments":[],"categories_sizes":[],"default_left":[0,0,0,0,0,0,0],"id":82,"left_children":[1,-1,3,5,-1,-1,-1],"loss_changes":[2.4884691E0,0E0,2.624029E0,8.268172E-1,0E0,0E0,0E0],"parents":[2147483647,0,0,2,2,3,3],"right_children":[2,-1,4,6,-1,-1,-1],"split_conditions":[1E0,-4.731833E-2,4.44E1,1.68E1,5.0900698E-2,3.3272374E-2,-4.1381523E-2],"split_indices":[5,0,0,1,0,0,0],"split_type":[0,0,0,0,0,0,0],"sum_hessian":[2.471605E1,9.318508E0,1.5397541E1,7.0806856E0,8.316855E0,1.078201E0,6.002485E0],"tree_param":{"num_deleted":"0","num_feature":"7","num_nodes":"7","size_leaf_vector":"1"}},{"base_weights":[-3.047821E-2,-4.77042E-2,4.0221244E-1,-9.1747185E-3,4.596843E-1,4.82178E-2,1.2887336E-2],"categories":[],"categories_nodes":[],"categories_segments":[],"categories_sizes":[],"default_left":[0,0,0,0,0,0,0],"id":83,"left_children":[1,-1,3,-1,5,-1,-1],"loss_changes":[4.518481E0,0E0,3.804283E-1,0E0,1.8519163E-2,0E0,0E0],"parents":[2147483647,0,0,2,2,4,4],"right_children":[2,-1,4,-1,6,-1,-1],"split_conditions":[2.08E2,-4.77042E-2,4.35E3,-9.1747185E-3,5.17E1,4.82178E-2,1.2887336E-2],"split_indices":[2,0,3,0,0,0,0],"split_type":[0,0,0,0,0,0,0],"sum_hessian":[2.1391676E1,1.0476633E1,1.0915042E1,1.0754418E0,9.839601E0,8.784715E0,1.0548856E0],"tree_param":{"num_deleted":"0","num_feature":"7","num_nodes":"7","size_leaf_vector":"1"}},{"base_weights":[8.5490584E-2,-3.2867372E-1,2.1489969E-1,-3.6326367E-3,-4.213917E-2,4.2885113E-1,9.4692096E-2,4.626135E-2,1.1777678E-2,-1.9406959E-3,2.746332E-2],"categories":[],"categories_nodes":[],"categories_segments":[],"categories_sizes":[],"default_left":[0,0,0,0,0,0,0,0,0,0,0],"id":84,"left_children":[1,3,5,-1,-1,7,9,-1,-1,-1,-1],"loss_changes":[1.6021035E0,1.7980015E-1,5.348711E-1,0E0,0E0,2.7078152E-2,3.2582122E-1,0E0,0E0,0E0,0E0],"parents":[2147483647,0,0,1,1,2,2,5,5,6,6],"right_children":[2,4,6,-1,-1,8,10,-1,-1,-1,-1],"split_conditions":[1.67E1,1.99E2,1E0,-3.6326367E-3,-4.213917E-2,2.01E2,3.825E3,4.626135E-2,1.1777678E-2,-1.9406959E-3,2.746332E-2],"split_indices":[1,2,5,0,0,2,3,0,0,0,0],"split_type":[0,0,0,0,0,0,0,0,0,0,0],"sum_hessian":[2.7574028E1,6.197996E0,2.1376032E1,1.8275077E0,4.370488E0,6.765994E0,1.4610039E1,5.6640944E0,1.1018996E0,9.486733E0,5.1233053E0],"tree_param":{"num_deleted":"0","num_feature":"7","num_nodes":"11","size_leaf_vector":"1"}},{"base_weights":[-1.01110004E-1,-4.683624E-2,1.3701463E-1,-4.3752212E-2,3.8737428E-1,5.0787278E-2,4.6702027E-3],"categories":[],"categories_nodes":[],"categories_segments":[],"categories_sizes":[],"default_left":[0,0,0,0,0,0,0],"id":85,"left_children":[1,-1,3,-1,5,-1,-1],"loss_changes":[2.1647935E0,0E0,2.3768103E0,0E0,4.368081E-1,0E0,0E0],"parents":[2147483647,0,0,2,2,4,4],"right_children":[2,-1,4,-1,6,-1,-1],"split_conditions":[1E0,-4.683624E-2,4.07E1,-4.3752212E-2,4.075E3,5.0787278E-2,4.6702027E-3],"split_indices":[5,0,0,0,3,0,0],"split_type":[0,0,0,0,0,0,0],"sum_hessian":[2.3020319E1,8.6747055E0,1.43456135E1,4.1270638E0,1.0218549E1,7.186006E0,3.032543E0],"tree_param":{"num_deleted":"0","num_feature":"7","num_nodes":"7","size_leaf_vector":"1"}},{"base_weights":[-1.7331807E-2,-4.7067218E-2,4.0061662E-1,4.8172165E-2,-1.3202943E-2],"categories":[],"categories_nodes":[],"categories_segments":[],"categories_sizes":[],"default_left":[0,0,0,0,0],"id":86,"left_children":[1,-1,3,-1,-1],"loss_changes":[4.138193E0,0E0,5.55491E-1,0E0,0E0],"parents":[2147483647,0,0,2,2],"right_children":[2,-1,4,-1,-1],"split_conditions":[2.08E2,-4.7067218E-2,1.71E1,4.8172165E-2,-1.3202943E-2],"split_indices":[2,0,1,0,0],"split_type":[0,0,0,0,0],"sum_hessian":[1.9845379E1,9.459116E0,1.0386264E1,9.096728E0,1.2895353E0],"tree_param":{"num_deleted":"0","num_feature":"7","num_nodes":"5","size_leaf_vector":"1"}},{"base_weights":[1.0000561E-1,-3.614853E-1,2.3028535E-1,-7.982294E-3,-4.1745715E-2,4.4110882E-1,9.8041914E-2,1.3856769E-2,4.7523197E-2,1.6890768E-2,-1.2873172E-2],"categories":[],"categories_nodes":[],"categories_segments":[],"categories_sizes":[],"default_left":[0,0,0,0,0,0,0,0,0,0,0],"id":87,"left_children":[1,3,5,-1,-1,7,9,-1,-1,-1,-1],"loss_changes":[1.76287E0,6.977278E-2,5.8118415E-1,0E0,0E0,2.0327091E-2,2.6359445E-1,0E0,0E0,0E0,0E0],"parents":[2147483647,0,0,1,1,2,2,5,5,6,6],"right_children":[2,4,6,-1,-1,8,10,-1,-1,-1,-1],"split_conditions":[1.67E1,1.99E2,1E0,-7.982294E-3,-4.1745715E-2,1.75E1,1.97E2,1.3856769E-2,4.7523197E-2,1.6890768E-2,-1.2873172E-2],"split_indices":[1,2,5,0,0,1,2,0,0,0,0],"split_type":[0,0,0,0,0,0,0,0,0,0,0],"sum_hessian":[2.6936525E1,5.53944E0,2.1397087E1,1.3205044E0,4.2189355E0,7.347718E0,1.4049369E1,1.2576864E0,6.090031E0,1.0898733E1,3.1506357E0],"tree_param":{"num_deleted":"0","num_feature":"7","num_nodes":"11","size_leaf_vector":"1"}},{"base_weights":[-7.6469004E-2,-4.5672473E-2,9.253371E-2,4.1466284E-1,-2.9771566E-1,7.387984E-4,4.874691E-2,-4.697913E-2,2.3232833E-3],"categories":[],"categories_nodes":[],"categories_segments":[],"categories_sizes":[],"default_left":[0,0,0,0,0,0,0,0,0],"id":88,"left_children":[1,-1,3,5,7,-1,-1,-1,-1],"loss_changes":[1.5157839E0,0E0,2.2235138E0,2.8015172E-1,4.6025145E-1,0E0,0E0,0E0,0E0],"parents":[2147483647,0,0,2,2,3,3,4,4],"right_children":[2,-1,4,6,8,-1,-1,-1,-1],"split_conditions":[4.09E1,-4.5672473E-2,4.075E3,4.23E1,4.88E1,7.387984E-4,4.874691E-2,-4.697913E-2,2.3232833E-3],"split_indices":[0,0,3,0,0,0,0,0,0],"split_type":[0,0,0,0,0,0,0,0,0],"sum_hessian":[2.1929104E1,6.2235847E0,1.570552E1,8.569399E0,7.136121E0,1.466627E0,7.1027718E0,4.3435693E0,2.7925518E0],"tree_param":{"num_deleted":"0","num_feature":"7","num_nodes":"9","size_leaf_vector":"1"}},{"base_weights":[-3.044143E-2,4.300815E-1,-4.0358126E-1,1.0223792E-2,4.6156265E-2,-4.6804972E-2,8.304187E-3],"categories":[],"categories_nodes":[],"categories_segments":[],"categories_sizes":[],"default_left":[0,0,0,0,0,0,0],"id":89,"left_children":[1,3,5,-1,-1,-1,-1],"loss_changes":[3.3848324E0,4.4135213E-2,3.7890935E-1,0E0,0E0,0E0,0E0],"parents":[2147483647,0,0,1,1,2,2],"right_children":[2,4,6,-1,-1,-1,-1],"split_conditions":[1.65E1,4.4E3,4.55E3,1.0223792E-2,4.6156265E-2,-4.6804972E-2,8.304187E-3],"split_indices":[1,3,3,0,0,0,0],"split_type":[0,0,0,0,0,0,0],"sum_hessian":[1.768756E1,7.8484864E0,9.839072E0,1.059761E0,6.7887254E0,8.721769E0,1.1173025E0],"tree_param":{"num_deleted":"0","num_feature":"7","num_nodes":"7","size_leaf_vector":"1"}},{"base_weights":[1.1222388E-1,3.832909E-1,-4.1685537E-1,4.973444E-2,1.528255E-1,-1.617281E-2,-4.5417707E-2,-3.9828394E-2,5.024792E-2],"categories":[],"categories_nodes":[],"categories_segments":[],"categories_sizes":[],"default_left":[0,0,0,0,0,0,0,0,0],"id":90,"left_children":[1,3,5,-1,7,-1,-1,-1,-1],"loss_changes":[3.6971624E0,3.6638427E-1,1.067102E-2,0E0,1.5519581E0,0E0,0E0,0E0,0E0],"parents":[2147483647,0,0,1,1,2,2,4,4],"right_children":[2,4,6,-1,8,-1,-1,-1,-1],"split_conditions":[4.44E1,4.09E1,4.57E1,4.973444E-2,1E0,-1.617281E-2,-4.5417707E-2,-3.9828394E-2,5.024792E-2],"split_indices":[0,0,0,0,4,0,0,0,0],"split_type":[0,0,0,0,0,0,0,0,0],"sum_hessian":[2.366522E1,1.5830313E1,7.834908E0,9.8150215E0,6.0152907E0,1.6805049E0,6.1544027E0,2.2809973E0,3.7342932E0],"tree_param":{"num_deleted":"0","num_feature":"7","num_nodes":"9","size_leaf_vector":"1"}},{"base_weights":[-4.9172662E-2,-4.579316E-2,1.8199338E-1,4.886456E-2,2.9192978E-1,2.2296883E-2,-3.1995077E-2,1.0270159E-2,3.3886828E-2],"categories":[],"categories_nodes":[],"categories_segments":[],"categories_sizes":[],"default_left":[0,0,0,0,0,0,0,0,0],"id":91,"left_children":[1,-1,3,5,7,-1,-1,-1,-1],"loss_changes":[2.2234547E0,0E0,2.0794564E-1,5.894094E-1,3.727317E-2,0E0,0E0,0E0,0E0],"parents":[2147483647,0,0,2,2,3,3,4,4],"right_children":[2,-1,4,6,8,-1,-1,-1,-1],"split_conditions":[1E0,-4.579316E-2,1.93E2,1E0,3.6E3,2.2296883E-2,-3.1995077E-2,1.0270159E-2,3.3886828E-2],"split_indices":[5,0,2,4,3,0,0,0,0],"split_type":[0,0,0,0,0,0,0,0,0],"sum_hessian":[2.1648825E1,7.466043E0,1.4182781E1,7.068082E0,7.1147E0,5.070112E0,1.9979694E0,2.047678E0,5.067022E0],"tree_param":{"num_deleted":"0","num_feature":"7","num_nodes":"9","size_leaf_vector":"1"}},{"base_weights":[-5.8327924E-2,4.412448E-2,-4.3550453E-1,-4.6633553E-2,-8.451967E-3],"categories":[],"categories_nodes":[],"categories_segments":[],"categories_sizes":[],"default_left":[0,0,0,0,0],"id":92,"left_children":[1,-1,3,-1,-1],"loss_changes":[3.530056E0,0E0,7.525802E-2,0E0,0E0],"parents":[2147483647,0,0,2,2],"right_children":[2,-1,4,-1,-1],"split_conditions":[1.64E1,4.412448E-2,4.5E3,-4.6633553E-2,-8.451967E-3],"split_indices":[1,0,3,0,0],"split_type":[0,0,0,0,0],"sum_hessian":[1.6714497E1,7.117483E0,9.5970125E0,8.5199585E0,1.077054E0],"tree_param":{"num_deleted":"0","num_feature":"7","num_nodes":"5","size_leaf_vector":"1"}},{"base_weights":[1.22189045E-1,4.7916714E-2,-3.1896994E-1,2.3262035E-2,-4.196028E-2,-1.6201213E-2,1.82987E-2],"categories":[],"categories_nodes":[],"categories_segments":[],"categories_sizes":[],"default_left":[0,0,0,0,0,0,0],"id":93,"left_children":[1,-1,3,5,-1,-1,-1],"loss_changes":[3.423646E0,0E0,3.5035777E-1,1.2418693E-1,0E0,0E0,0E0],"parents":[2147483647,0,0,2,2,3,3],"right_children":[2,-1,4,6,-1,-1,-1],"split_conditions":[4.24E1,4.7916714E-2,4.44E1,4.35E1,-4.196028E-2,-1.6201213E-2,1.82987E-2],"split_indices":[0,0,0,0,0,0,0],"split_type":[0,0,0,0,0,0,0],"sum_hessian":[1.976912E1,1.087948E1,8.889639E0,2.1947114E0,6.6949277E0,1.0094607E0,1.1852508E0],"tree_param":{"num_deleted":"0","num_feature":"7","num_nodes":"7","size_leaf_vector":"1"}},{"base_weights":[-9.091252E-2,-3.1603283E-1,2.376036E-1,-1.4580046E-1,-4.8078906E-2,4.4780403E-2,-3.4496095E-2,-4.1595988E-2,1.8523961E-2],"categories":[],"categories_nodes":[],"categories_segments":[],"categories_sizes":[],"default_left":[0,0,0,0,0,0,0,0,0],"id":94,"left_children":[1,3,5,7,-1,-1,-1,-1,-1],"loss_changes":[1.6743454E0,3.018216E-1,1.3011241E0,7.886932E-1,0E0,0E0,0E0,0E0,0E0],"parents":[2147483647,0,0,1,1,2,2,3,3],"right_children":[2,4,6,8,-1,-1,-1,-1,-1],"split_conditions":[4.6E1,1E0,2.13E2,4.06E1,-4.8078906E-2,4.4780403E-2,-3.4496095E-2,-4.1595988E-2,1.8523961E-2],"split_indices":[0,4,2,0,0,0,0,0,0],"split_type":[0,0,0,0,0,0,0,0,0],"sum_hessian":[2.0624512E1,1.2260695E1,8.363816E0,6.9572E0,5.303496E0,6.3161507E0,2.0476654E0,3.689611E0,3.2675889E0],"tree_param":{"num_deleted":"0","num_feature":"7","num_nodes":"9","size_leaf_vector":"1"}},{"base_weights":[-3.636795E-2,4.1692145E-2,-3.646973E-1,-4.6088424E-2,1.7367246E-2],"categories":[],"categories_nodes":[],"categories_segments":[],"categories_sizes":[],"default_left":[0,0,0,0,0],"id":95,"left_children":[1,-1,3,-1,-1],"loss_changes":[2.5889766E0,0E0,5.994036E-1,0E0,0E0],"parents":[2147483647,0,0,2,2],"right_children":[2,-1,4,-1,-1],"split_conditions":[1.65E1,4.1692145E-2,4.75E3,-4.6088424E-2,1.7367246E-2],"split_indices":[1,0,3,0,0],"split_type":[0,0,0,0,0],"sum_hessian":[1.5374089E1,6.3447466E0,9.029343E0,7.782773E0,1.2465698E0],"tree_param":{"num_deleted":"0","num_feature":"7","num_nodes":"5","size_leaf_vector":"1"}},{"base_weights":[8.251768E-2,4.2078224E-1,-2.6339942E-1,-7.672882E-3,4.9309682E-2,-4.2900822E-1,1.4533229E-2,-4.6245854E-2,-1.2108903E-2,4.2515893E-2,-3.7482407E-2],"categories":[],"categories_nodes":[],"categories_segments":[],"categories_sizes":[],"default_left":[0,0,0,0,0,0,0,0,0,0,0],"id":96,"left_children":[1,3,5,-1,-1,7,9,-1,-1,-1,-1],"loss_changes":[2.9035132E0,4.858172E-1,5.7766885E-1,0E0,0E0,2.4466991E-2,1.055118E0,0E0,0E0,0E0,0E0],"parents":[2147483647,0,0,1,1,2,2,5,5,6,6],"right_children":[2,4,6,-1,-1,8,10,-1,-1,-1,-1],"split_conditions":[4.24E1,1.67E1,1.83E1,-7.672882E-3,4.9309682E-2,1.8E1,4.6E1,-4.6245854E-2,-1.2108903E-2,4.2515893E-2,-3.7482407E-2],"split_indices":[0,1,1,0,0,1,0,0,0,0,0],"split_type":[0,0,0,0,0,0,0,0,0,0,0],"sum_hessian":[2.2866709E1,1.1451813E1,1.1414895E1,1.4455625E0,1.000625E1,6.8122077E0,4.6026874E0,5.6919856E0,1.1202224E0,2.195407E0,2.4072804E0],"tree_param":{"num_deleted":"0","num_feature":"7","num_nodes":"11","size_leaf_vector":"1"}},{"base_weights":[-6.250342E-2,-4.5335937E-2,1.56055E-1,7.052914E-2,3.1361848E-2,1.8388858E-2,-2.3205435E-2],"categories":[],"categories_nodes":[],"categories_segments":[],"categories_sizes":[],"default_left":[0,0,0,0,0,0,0],"id":97,"left_children":[1,-1,3,5,-1,-1,-1],"loss_changes":[1.9377619E0,0E0,1.7680055E-1,4.151088E-1,0E0,0E0,0E0],"parents":[2147483647,0,0,2,2,3,3],"right_children":[2,-1,4,6,-1,-1,-1],"split_conditions":[1E0,-4.5335937E-2,1.97E2,3.825E3,3.1361848E-2,1.8388858E-2,-2.3205435E-2],"split_indices":[5,0,2,3,0,0,0],"split_type":[0,0,0,0,0,0,0],"sum_hessian":[2.0855614E1,7.0943017E0,1.3761313E1,9.857992E0,3.9033206E0,7.4566975E0,2.401295E0],"tree_param":{"num_deleted":"0","num_feature":"7","num_nodes":"7","size_leaf_vector":"1"}},{"base_weights":[-4.731611E-2,4.1057058E-2,-3.8993475E-1,-1.3567343E-1,-4.480357E-2,5.3203334E-3,-2.6443565E-2],"categories":[],"categories_nodes":[],"categories_segments":[],"categories_sizes":[],"default_left":[0,0,0,0,0,0,0],"id":98,"left_children":[1,-1,3,5,-1,-1,-1],"loss_changes":[2.545656E0,0E0,7.528317E-2,9.0619154E-2,0E0,0E0,0E0],"parents":[2147483647,0,0,2,2,3,3],"right_children":[2,-1,4,6,-1,-1,-1],"split_conditions":[1.65E1,4.1057058E-2,1.75E1,1E0,-4.480357E-2,5.3203334E-3,-2.6443565E-2],"split_indices":[1,0,1,5,0,0,0],"split_type":[0,0,0,0,0,0,0],"sum_hessian":[1.4206225E1,5.99542E0,8.210806E0,2.1476026E0,6.063203E0,1.1084564E0,1.0391462E0],"tree_param":{"num_deleted":"0","num_feature":"7","num_nodes":"7","size_leaf_vector":"1"}},{"base_weights":[8.3737195E-2,-1.9688517E-1,2.5238985E-1,-1.747222E-2,-3.8769286E-2,4.3733165E-2,1.3090481E-1,3.0545538E-2,-1.9438334E-2,2.8428538E-2,-8.414171E-3],"categories":[],"categories_nodes":[],"categories_segments":[],"categories_sizes":[],"default_left":[0,0,0,0,0,0,0,0,0,0,0],"id":99,"left_children":[1,3,5,7,-1,-1,9,-1,-1,-1,-1],"loss_changes":[1.0627254E0,2.8752482E-1,2.5298083E-1,3.7232557E-1,0E0,0E0,3.458706E-1,0E0,0E0,0E0,0E0],"parents":[2147483647,0,0,1,1,2,2,3,3,6,6],"right_children":[2,4,6,8,-1,-1,10,-1,-1,-1,-1],"split_conditions":[1.75E1,1.99E2,1E0,1E0,-3.8769286E-2,4.3733165E-2,1.95E2,3.0545538E-2,-1.9438334E-2,2.8428538E-2,-8.414171E-3],"split_indices":[1,2,5,5,0,0,2,0,0,0,0],"split_type":[0,0,0,0,0,0,0,0,0,0,0],"sum_hessian":[2.0404663E1,7.5968347E0,1.2807827E1,4.477909E0,3.1189256E0,4.047012E0,8.760816E0,1.3277235E0,3.1501858E0,4.925653E0,3.8351626E0],"tree_param":{"num_deleted":"0","num_feature":"7","num_nodes":"11","size_leaf_vector":"1"}},{"base_weights":[-1.0359532E-1,-4.410511E-2,9.4876125E-2,3.254668E-2,4.243254E-2,-4.424435E-3,2.2900702E-2],"categories":[],"categories_nodes":[],"categories_segments":[],"categories_sizes":[],"default_left":[0,0,0,0,0,0,0],"id":100,"left_children":[1,-1,3,-1,5,-1,-1],"loss_changes":[1.2834349E0,0E0,1.3730073E-1,0E0,1.9336277E-1,0E0,0E0],"parents":[2147483647,0,0,2,2,4,4],"right_children":[2,-1,4,-1,6,-1,-1],"split_conditions":[1E0,-4.410511E-2,1.68E1,3.254668E-2,1.97E2,-4.424435E-3,2.2900702E-2],"split_indices":[5,0,1,0,2,0,0],"split_type":[0,0,0,0,0,0,0],"sum_hessian":[1.7538013E1,6.042267E0,1.1495747E1,1.1654246E0,1.0330322E1,7.5743613E0,2.7559607E0],"tree_param":{"num_deleted":"0","num_feature":"7","num_nodes":"7","size_leaf_vector":"1"}},{"base_weights":[-3.8932476E-2,-4.4376895E-2,3.4551206E-1,4.449247E-2,-1.5403512E-2],"categories":[],"categories_nodes":[],"categories_segments":[],"categories_sizes":[],"default_left":[0,0,0,0,0],"id":101,"left_children":[1,-1,3,-1,-1],"loss_changes":[2.3042974E0,0E0,4.484918E-1,0E0,0E0],"parents":[2147483647,0,0,2,2],"right_children":[2,-1,4,-1,-1],"split_conditions":[2.07E2,-4.4376895E-2,1.69E1,4.449247E-2,-1.5403512E-2],"split_indices":[2,0,1,0,0],"split_type":[0,0,0,0,0],"sum_hessian":[1.2820413E1,6.169429E0,6.6509833E0,5.6382794E0,1.0127043E0],"tree_param":{"num_deleted":"0","num_feature":"7","num_nodes":"5","size_leaf_vector":"1"}},{"base_weights":[1.0282542E-1,4.2546925E-1,-2.9191905E-1,-6.7032836E-3,4.893155E-2,-4.487517E-2,-4.6409346E-2,3.451563E-2,-3.6644712E-2],"categories":[],"categories_nodes":[],"categories_segments":[],"categories_sizes":[],"default_left":[0,0,0,0,0,0,0,0,0],"id":102,"left_children":[1,3,5,-1,-1,-1,7,-1,-1],"loss_changes":[2.7886763E0,4.0756965E-1,3.642913E-1,0E0,0E0,0E0,7.5483114E-1,0E0,0E0],"parents":[2147483647,0,0,1,1,2,2,6,6],"right_children":[2,4,6,-1,-1,-1,8,-1,-1],"split_conditions":[4.24E1,1.67E1,1.8E1,-6.7032836E-3,4.893155E-2,-4.487517E-2,4.6E1,3.451563E-2,-3.6644712E-2],"split_indices":[0,1,1,0,0,0,0,0,0],"split_type":[0,0,0,0,0,0,0,0,0],"sum_hessian":[1.99205E1,1.0918469E1,9.00203E0,1.24727E0,9.6712E0,4.9879007E0,4.0141296E0,1.7700233E0,2.2441063E0],"tree_param":{"num_deleted":"0","num_feature":"7","num_nodes":"9","size_leaf_vector":"1"}},{"base_weights":[-1.064961E-1,-3.0600458E-1,2.0695543E-1,-5.151428E-2,-4.7440518E-2,4.122736E-2,-3.195693E-2,-3.29349E-2,1.4488645E-2],"categories":[],"categories_nodes":[],"categories_segments":[],"categories_sizes":[],"default_left":[0,0,0,0,0,0,0,0,0],"id":103,"left_children":[1,3,5,7,-1,-1,-1,-1,-1],"loss_changes":[1.1717422E0,4.57016E-1,9.4147575E-1,3.5304207E-1,0E0,0E0,0E0,0E0,0E0],"parents":[2147483647,0,0,1,1,2,2,3,3],"right_children":[2,4,6,8,-1,-1,-1,-1,-1],"split_conditions":[4.6E1,1.75E1,2.13E2,4.08E1,-4.7440518E-2,4.122736E-2,-3.195693E-2,-3.29349E-2,1.4488645E-2],"split_indices":[0,1,2,0,0,0,0,0,0],"split_type":[0,0,0,0,0,0,0,0,0],"sum_hessian":[1.6724329E1,1.0234157E1,6.490172E0,4.5954E0,5.6387568E0,4.8254714E0,1.6647003E0,1.622805E0,2.9725952E0],"tree_param":{"num_deleted":"0","num_feature":"7","num_nodes":"9","size_leaf_vector":"1"}},{"base_weights":[-4.7656827E-2,4.041403E-2,-3.86144E-1,-4.385358E-2,-3.7951265E-3],"categories":[],"categories_nodes":[],"categories_segments":[],"categories_sizes":[],"default_left":[0,0,0,0,0],"id":104,"left_children":[1,-1,3,-1,-1],"loss_changes":[2.1224957E0,0E0,1.2678862E-1,0E0,0E0],"parents":[2147483647,0,0,2,2],"right_children":[2,-1,4,-1,-1],"split_conditions":[1.65E1,4.041403E-2,2.09E2,-4.385358E-2,-3.7951265E-3],"split_indices":[1,0,2,0,0],"split_type":[0,0,0,0,0],"sum_hessian":[1.1858632E1,4.996103E0,6.8625293E0,5.7394624E0,1.1230669E0],"tree_param":{"num_deleted":"0","num_feature":"7","num_nodes":"5","size_leaf_vector":"1"}},{"base_weights":[6.590527E-2,3.1086746E-1,-3.7254938E-1,-1.72045E-2,4.0732613E-1,-7.416365E-3,-4.3570306E-2,4.7459822E-2,1.24698505E-2],"categories":[],"categories_nodes":[],"categories_segments":[],"categories_sizes":[],"default_left":[0,0,0,0,0,0,0,0,0],"id":105,"left_children":[1,3,5,-1,7,-1,-1,-1,-1],"loss_changes":[2.254588E0,6.9057107E-1,1.10761166E-1,0E0,1.5756404E-1,0E0,0E0,0E0,0E0],"parents":[2147483647,0,0,1,1,2,2,4,4],"right_children":[2,4,6,-1,8,-1,-1,-1,-1],"split_conditions":[4.44E1,1.68E1,4.6E1,-1.72045E-2,4.24E1,-7.416365E-3,-4.3570306E-2,4.7459822E-2,1.24698505E-2],"split_indices":[0,1,0,0,0,0,0,0,0],"split_type":[0,0,0,0,0,0,0,0,0],"sum_hessian":[1.8913208E1,1.2320696E1,6.592512E0,1.9207921E0,1.0399904E1,1.5313927E0,5.061119E0,7.8517632E0,2.5481408E0],"tree_param":{"num_deleted":"0","num_feature":"7","num_nodes":"9","size_leaf_vector":"1"}},{"base_weights":[-3.1132633E-2,-4.28254E-2,1.678064E-1,4.1812506E-2,2.6471895E-1,1.9368164E-2,-2.76316E-2,8.920761E-3,3.0305093E-2],"categories":[],"categories_nodes":[],"categories_segments":[],"categories_sizes":[],"default_left":[0,0,0,0,0,0,0,0,0],"id":106,"left_children":[1,-1,3,5,7,-1,-1,-1,-1],"loss_changes":[1.4308205E0,0E0,1.376388E-1,3.667127E-1,1.8015862E-2,0E0,0E0,0E0,0E0],"parents":[2147483647,0,0,2,2,3,3,4,4],"right_children":[2,-1,4,6,8,-1,-1,-1,-1],"split_conditions":[1E0,-4.28254E-2,1.93E2,1E0,3.6E3,1.9368164E-2,-2.76316E-2,8.920761E-3,3.0305093E-2],"split_indices":[5,0,2,4,3,0,0,0,0],"split_type":[0,0,0,0,0,0,0,0,0],"sum_hessian":[1.6201344E1,5.022586E0,1.1178757E1,5.4825106E0,5.6962466E0,3.9757426E0,1.5067679E0,1.617483E0,4.0787635E0],"tree_param":{"num_deleted":"0","num_feature":"7","num_nodes":"9","size_leaf_vector":"1"}},{"base_weights":[-6.247537E-2,-4.4135418E-2,3.5608923E-1,4.2417087E-2,-4.0640294E-5],"categories":[],"categories_nodes":[],"categories_segments":[],"categories_sizes":[],"default_left":[0,0,0,0,0],"id":107,"left_children":[1,-1,3,-1,-1],"loss_changes":[2.1495717E0,0E0,1.5848273E-1,0E0,0E0],"parents":[2147483647,0,0,2,2],"right_children":[2,-1,4,-1,-1],"split_conditions":[2.08E2,-4.4135418E-2,1.64E1,4.2417087E-2,-4.0640294E-5],"split_indices":[2,0,1,0,0],"split_type":[0,0,0,0,0],"sum_hessian":[1.1563654E1,6.040989E0,5.5226655E0,4.477703E0,1.0449625E0],"tree_param":{"num_deleted":"0","num_feature":"7","num_nodes":"5","size_leaf_vector":"1"}},{"base_weights":[8.068957E-2,3.3110848E-1,-3.642896E-1,2.459264E-2,4.924037E-2,-1.1231641E-2,-4.2443465E-2,3.82947E-2,-4.0843144E-2],"categories":[],"categories_nodes":[],"categories_segments":[],"categories_sizes":[],"default_left":[0,0,0,0,0,0,0,0,0],"id":108,"left_children":[1,3,5,7,-1,-1,-1,-1,-1],"loss_changes":[2.1694558E0,5.954658E-1,5.9888184E-2,9.7724986E-1,0E0,0E0,0E0,0E0,0E0],"parents":[2147483647,0,0,1,1,2,2,3,3],"right_children":[2,4,6,8,-1,-1,-1,-1,-1],"split_conditions":[4.44E1,1.75E1,4.6E1,4.08E1,4.924037E-2,-1.1231641E-2,-4.2443465E-2,3.82947E-2,-4.0843144E-2],"split_indices":[0,1,0,0,0,0,0,0,0],"split_type":[0,0,0,0,0,0,0,0,0],"sum_hessian":[1.738656E1,1.1289258E1,6.0973024E0,4.289747E0,6.9995103E0,1.7274985E0,4.369804E0,2.4105294E0,1.879218E0],"tree_param":{"num_deleted":"0","num_feature":"7","num_nodes":"9","size_leaf_vector":"1"}},{"base_weights":[-4.2503674E-2,-4.303712E-2,1.455611E-1,-3.9819513E-2,3.504958E-1,6.8914937E-3,4.652527E-2],"categories":[],"categories_nodes":[],"categories_segments":[],"categories_sizes":[],"default_left":[0,0,0,0,0,0,0],"id":109,"left_children":[1,-1,3,-1,5,-1,-1],"loss_changes":[1.3843646E0,0E0,1.582652E0,0E0,2.8904104E-1,0E0,0E0],"parents":[2147483647,0,0,2,2,4,4],"right_children":[2,-1,4,-1,6,-1,-1],"split_conditions":[1E0,-4.303712E-2,4.09E1,-3.9819513E-2,4.44E1,6.8914937E-3,4.652527E-2],"split_indices":[5,0,0,0,0,0,0],"split_type":[0,0,0,0,0,0,0],"sum_hessian":[1.7119589E1,5.1695056E0,1.1950084E1,3.0128937E0,8.93719E0,3.051125E0,5.8860645E0],"tree_param":{"num_deleted":"0","num_feature":"7","num_nodes":"7","size_leaf_vector":"1"}},{"base_weights":[-3.287607E-2,3.8629502E-2,-3.4990948E-1,-4.3834172E-2,1.152264E-2],"categories":[],"categories_nodes":[],"categories_segments":[],"categories_sizes":[],"default_left":[0,0,0,0,0],"id":110,"left_children":[1,-1,3,-1,-1],"loss_changes":[1.8113049E0,0E0,3.674817E-1,0E0,0E0],"parents":[2147483647,0,0,2,2],"right_children":[2,-1,4,-1,-1],"split_conditions":[1.65E1,3.8629502E-2,4.7E3,-4.3834172E-2,1.152264E-2],"split_indices":[1,0,3,0,0],"split_type":[0,0,0,0,0],"sum_hessian":[1.1612844E1,4.9067864E0,6.7060585E0,5.6831717E0,1.0228868E0],"tree_param":{"num_deleted":"0","num_feature":"7","num_nodes":"5","size_leaf_vector":"1"}},{"base_weights":[1.23830205E-2,1.04293756E-1,-3.636179E-2,3.929998E-2,-4.857258E-2,-1.1237454E-2,9.717409E-3],"categories":[],"categories_nodes":[],"categories_segments":[],"categories_sizes":[],"default_left":[0,0,0,0,0,0,0],"id":111,"left_children":[1,3,-1,-1,5,-1,-1],"loss_changes":[6.122393E-1,6.4275646E-1,0E0,0E0,1.0511153E-1,0E0,0E0],"parents":[2147483647,0,0,1,1,4,4],"right_children":[2,4,-1,-1,6,-1,-1],"split_conditions":[2.09E2,1E0,-3.636179E-2,3.929998E-2,3.825E3,-1.1237454E-2,9.717409E-3],"split_indices":[2,5,0,0,3,0,0],"split_type":[0,0,0,0,0,0,0],"sum_hessian":[1.5618659E1,1.3131405E1,2.4872544E0,4.0020986E0,9.129306E0,6.5089335E0,2.6203725E0],"tree_param":{"num_deleted":"0","num_feature":"7","num_nodes":"7","size_leaf_vector":"1"}},{"base_weights":[-3.699031E-2,-4.071281E-2,1.136944E-1,3.827087E-1,-2.6529163E-1,7.20739E-3,4.2780157E-2,-3.715528E-2,-2.2846302E-3],"categories":[],"categories_nodes":[],"categories_segments":[],"categories_sizes":[],"default_left":[0,0,0,0,0,0,0,0,0],"id":112,"left_children":[1,-1,3,5,7,-1,-1,-1,-1],"loss_changes":[8.9298016E-1,0E0,1.2811562E0,6.9689035E-2,1.304737E-1,0E0,0E0,0E0,0E0],"parents":[2147483647,0,0,2,2,3,3,4,4],"right_children":[2,-1,4,6,8,-1,-1,-1,-1],"split_conditions":[4.09E1,-4.071281E-2,4.075E3,4.23E1,1.82E1,7.20739E-3,4.2780157E-2,-3.715528E-2,-2.2846302E-3],"split_indices":[0,0,3,0,1,0,0,0,0],"split_type":[0,0,0,0,0,0,0,0,0],"sum_hessian":[1.4180737E1,3.6103988E0,1.0570338E1,6.176367E0,4.393971E0,1.1123031E0,5.064064E0,2.6847513E0,1.7092197E0],"tree_param":{"num_deleted":"0","num_feature":"7","num_nodes":"9","size_leaf_vector":"1"}},{"base_weights":[-1.9604659E-2,-4.2457033E-2,3.724423E-1,4.1496105E-2,7.926533E-3],"categories":[],"categories_nodes":[],"categories_segments":[],"categories_sizes":[],"default_left":[0,0,0,0,0],"id":113,"left_children":[1,-1,3,-1,-1],"loss_changes":[1.8840495E0,0E0,4.260224E-2,0E0,0E0],"parents":[2147483647,0,0,2,2],"right_children":[2,-1,4,-1,-1],"split_conditions":[2.08E2,-4.2457033E-2,1.62E1,4.1496105E-2,7.926533E-3],"split_indices":[2,0,1,0,0],"split_type":[0,0,0,0,0],"sum_hessian":[9.870883E0,4.8146367E0,5.0562463E0,4.053048E0,1.0031983E0],"tree_param":{"num_deleted":"0","num_feature":"7","num_nodes":"5","size_leaf_vector":"1"}},{"base_weights":[8.099052E-2,3.1262797E-1,-3.5406622E-1,-1.431224E-2,4.1460678E-1,-7.933071E-3,-4.163989E-2,1.3969372E-2,4.833349E-2],"categories":[],"categories_nodes":[],"categories_segments":[],"categories_sizes":[],"default_left":[0,0,0,0,0,0,0,0,0],"id":114,"left_children":[1,3,5,-1,7,-1,-1,-1,-1],"loss_changes":[1.858866E0,6.1014426E-1,7.821208E-2,0E0,1.2030566E-1,0E0,0E0,0E0,0E0],"parents":[2147483647,0,0,1,1,2,2,4,4],"right_children":[2,4,6,-1,8,-1,-1,-1,-1],"split_conditions":[4.44E1,1.68E1,4.6E1,-1.431224E-2,1.75E1,-7.933071E-3,-4.163989E-2,1.3969372E-2,4.833349E-2],"split_indices":[0,1,0,0,1,0,0,0,0],"split_type":[0,0,0,0,0,0,0,0,0],"sum_hessian":[1.6347233E1,1.0851156E1,5.4960766E0,1.9103255E0,8.94083E0,1.4366485E0,4.059428E0,2.394672E0,6.5461583E0],"tree_param":{"num_deleted":"0","num_feature":"7","num_nodes":"9","size_leaf_vector":"1"}},{"base_weights":[-6.773579E-2,-4.2489566E-2,1.3114384E-1,2.0746687E-1,-9.334111E-2,1.6120541E-3,2.5028452E-2,-2.1099119E-2,9.713445E-3],"categories":[],"categories_nodes":[],"categories_segments":[],"categories_sizes":[],"default_left":[0,0,0,0,0,0,0,0,0],"id":115,"left_children":[1,-1,3,5,7,-1,-1,-1,-1],"loss_changes":[1.1722621E0,0E0,2.0544763E-1,6.4912945E-2,9.770359E-2,0E0,0E0,0E0,0E0],"parents":[2147483647,0,0,2,2,3,3,4,4],"right_children":[2,-1,4,6,8,-1,-1,-1,-1],"split_conditions":[1E0,-4.2489566E-2,4.075E3,1.86E2,1.97E2,1.6120541E-3,2.5028452E-2,-2.1099119E-2,9.713445E-3],"split_indices":[5,0,3,2,2,0,0,0,0],"split_type":[0,0,0,0,0,0,0,0,0],"sum_hessian":[1.4718864E1,4.8580475E0,9.860817E0,7.4154387E0,2.4453785E0,1.6076331E0,5.8078055E0,1.4450899E0,1.0002885E0],"tree_param":{"num_deleted":"0","num_feature":"7","num_nodes":"9","size_leaf_vector":"1"}},{"base_weights":[-2.0385172E-2,3.5972846E-1,-3.364407E-1,3.9724827E-2,1.1364037E-2,-4.164065E-2,9.988387E-4],"categories":[],"categories_nodes":[],"categories_segments":[],"categories_sizes":[],"default_left":[0,0,0,0,0,0,0],"id":116,"left_children":[1,3,5,-1,-1,-1,-1],"loss_changes":[1.4410601E0,5.3769946E-3,1.8467146E-1,0E0,0E0,0E0,0E0],"parents":[2147483647,0,0,1,1,2,2],"right_children":[2,4,6,-1,-1,-1,-1],"split_conditions":[1.64E1,1.58E1,4.98E1,3.9724827E-2,1.1364037E-2,-4.164065E-2,9.988387E-4],"split_indices":[1,1,0,0,0,0,0],"split_type":[0,0,0,0,0,0,0],"sum_hessian":[9.987727E0,4.471619E0,5.5161076E0,3.347058E0,1.1245612E0,4.3175073E0,1.1986004E0],"tree_param":{"num_deleted":"0","num_feature":"7","num_nodes":"7","size_leaf_vector":"1"}},{"base_weights":[9.661719E-2,3.9728156E-1,-2.614645E-1,-6.010196E-3,4.6752695E-2,-3.4888422E-1,9.943059E-3,-4.105843E-2,-1.6262464E-2],"categories":[],"categories_nodes":[],"categories_segments":[],"categories_sizes":[],"default_left":[0,0,0,0,0,0,0,0,0],"id":117,"left_children":[1,3,5,-1,-1,7,-1,-1,-1],"loss_changes":[1.912423E0,3.3423007E-1,2.9560804E-1,0E0,0E0,1.2287438E-2,0E0,0E0,0E0],"parents":[2147483647,0,0,1,1,2,2,5,5],"right_children":[2,4,6,-1,-1,8,-1,-1,-1],"split_conditions":[4.24E1,1.67E1,1.97E1,-6.010196E-3,4.6752695E-2,1.8E1,9.943059E-3,-4.105843E-2,-1.6262464E-2],"split_indices":[0,1,1,0,0,1,0,0,0],"split_type":[0,0,0,0,0,0,0,0,0],"sum_hessian":[1.5798324E1,8.528158E0,7.2701654E0,1.1546128E0,7.3735456E0,5.8793015E0,1.3908641E0,3.5116663E0,2.367635E0],"tree_param":{"num_deleted":"0","num_feature":"7","num_nodes":"9","size_leaf_vector":"1"}},{"base_weights":[-7.2644204E-3,-4.0947337E-2,1.794541E-1,-3.7021663E-2,3.7683636E-1,4.471389E-2,2.2981025E-3],"categories":[],"categories_nodes":[],"categories_segments":[],"categories_sizes":[],"default_left":[0,0,0,0,0,0,0],"id":118,"left_children":[1,-1,3,-1,5,-1,-1],"loss_changes":[1.1829293E0,0E0,1.3095788E0,0E0,1.9945288E-1,0E0,0E0],"parents":[2147483647,0,0,2,2,4,4],"right_children":[2,-1,4,-1,6,-1,-1],"split_conditions":[1E0,-4.0947337E-2,4.09E1,-3.7021663E-2,1.97E1,4.471389E-2,2.2981025E-3],"split_indices":[5,0,0,0,1,0,0],"split_type":[0,0,0,0,0,0,0],"sum_hessian":[1.3772966E1,3.988459E0,9.784507E0,2.353854E0,7.430653E0,5.9791245E0,1.4515282E0],"tree_param":{"num_deleted":"0","num_feature":"7","num_nodes":"7","size_leaf_vector":"1"}},{"base_weights":[-2.4202503E-2,-4.125769E-2,3.1548738E-1,4.7505065E-3,3.8495753E-2],"categories":[],"categories_nodes":[],"categories_segments":[],"categories_sizes":[],"default_left":[0,0,0,0,0],"id":119,"left_children":[1,-1,3,-1,-1],"loss_changes":[1.4829221E0,0E0,